{"learner":{"attributes":{"scikit_learn":"{\"_estimator_type\": \"classifier\"}"},"feature_names":["Forecast_Residual_Load_MW","Forecast_Solar_MW","Forecast_Wind_MW","Hour_sin","Hour_cos","DayOfWeek_sin","DayOfWeek_cos","Month_sin","Month_cos"],"feature_types":["float","float","float","float","float","float","float","float","float"],"gradient_booster":{"model":{"cats":{"enc":[],"feature_segments":[],"sorted_idx":[]},"gbtree_model_param":{"num_parallel_tree":"1","num_trees":"300"},"iteration_indptr":[0,1,2,3,4,5,6,7,8,9,10,11,12,13,14,15,16,17,18,19,20,21,22,23,24,25,26,27,28,29,30,31,32,33,34,35,36,37,38,39,40,41,42,43,44,45,46,47,48,49,50,51,52,53,54,55,56,57,58,59,60,61,62,63,64,65,66,67,68,69,70,71,72,73,74,75,76,77,78,79,80,81,82,83,84,85,86,87,88,89,90,91,92,93,94,95,96,97,98,99,100,101,102,103,104,105,106,107,108,109,110,111,112,113,114,115,116,117,118,119,120,121,122,123,124,125,126,127,128,129,130,131,132,133,134,135,136,137,138,139,140,141,142,143,144,145,146,147,148,149,150,151,152,153,154,155,156,157,158,159,160,161,162,163,164,165,166,167,168,169,170,171,172,173,174,175,176,177,178,179,180,181,182,183,184,185,186,187,188,189,190,191,192,193,194,195,196,197,198,199,200,201,202,203,204,205,206,207,208,209,210,211,212,213,214,215,216,217,218,219,220,221,222,223,224,225,226,227,228,229,230,231,232,233,234,235,236,237,238,239,240,241,242,243,244,245,246,247,248,249,250,251,252,253,254,255,256,257,258,259,260,261,262,263,264,265,266,267,268,269,270,271,272,273,274,275,276,277,278,279,280,281,282,283,284,285,286,287,288,289,290,291,292,293,294,295,296,297,298,299,300],"tree_info":[0,0,0,0,0,0,0,0,0,0,0,0,0,0,0,0,0,0,0,0,0,0,0,0,0,0,0,0,0,0,0,0,0,0,0,0,0,0,0,0,0,0,0,0,0,0,0,0,0,0,0,0,0,0,0,0,0,0,0,0,0,0,0,0,0,0,0,0,0,0,0,0,0,0,0,0,0,0,0,0,0,0,0,0,0,0,0,0,0,0,0,0,0,0,0,0,0,0,0,0,0,0,0,0,0,0,0,0,0,0,0,0,0,0,0,0,0,0,0,0,0,0,0,0,0,0,0,0,0,0,0,0,0,0,0,0,0,0,0,0,0,0,0,0,0,0,0,0,0,0,0,0,0,0,0,0,0,0,0,0,0,0,0,0,0,0,0,0,0,0,0,0,0,0,0,0,0,0,0,0,0,0,0,0,0,0,0,0,0,0,0,0,0,0,0,0,0,0,0,0,0,0,0,0,0,0,0,0,0,0,0,0,0,0,0,0,0,0,0,0,0,0,0,0,0,0,0,0,0,0,0,0,0,0,0,0,0,0,0,0,0,0,0,0,0,0,0,0,0,0,0,0,0,0,0,0,0,0,0,0,0,0,0,0,0,0,0,0,0,0,0,0,0,0,0,0,0,0,0,0,0,0,0,0,0,0,0,0,0,0,0,0,0,0,0,0,0,0,0,0],"trees":[{"base_weights":[2.7341239E-8,1.107245E0,-1.7214586E0,-4.368498E-1,1.5823497E0,-6.1764336E-1,-1.9166112E0,1.000343E0,-7.556845E-1,1.6332991E0,-1.149912E0,5.9230864E-1,-1.758124E0,-1.9357444E0,-9.049275E-1,1.7391919E0,3.7211838E-1,-1.2814044E0,6.2198527E-2,1.1934811E0,1.8435569E0,7.310848E-2,-1.4894818E0,8.113297E-1,-8.7878786E-2,-9.863482E-2,-1.0843625E0,-1.68781E0,-1.9630347E0,1.1932544E0,-9.344263E-2,9.2727005E-2,2.9558247E-2,6.600159E-2,-2.8332865E-2,-7.857093E-2,-8.249313E-3,1.8812504E-2,-7.447409E-2,7.7727295E-2,3.9408993E-2,6.225523E-2,9.4037645E-2,-9.48718E-2,-4.187688E-3,2.527739E-2,7.623683E-2,-6.9300406E-2,7.851769E-3,-2.3078611E-2,-9.332707E-2,-9.9260904E-2,-8.219364E-2,-5E-2,8.446551E-2],"categories":[],"categories_nodes":[],"categories_segments":[],"categories_sizes":[],"default_left":[0,0,0,0,0,0,0,0,0,0,0,0,0,0,0,0,0,0,0,0,0,0,0,0,0,0,0,0,0,0,0,0,0,0,0,0,0,0,0,0,0,0,0,0,0,0,0,0,0,0,0,0,0,0,0],"id":0,"left_children":[1,3,5,7,9,11,13,15,17,19,21,23,25,27,29,31,33,35,37,39,41,-1,43,45,-1,-1,47,49,51,53,-1,-1,-1,-1,-1,-1,-1,-1,-1,-1,-1,-1,-1,-1,-1,-1,-1,-1,-1,-1,-1,-1,-1,-1,-1],"loss_changes":[6.118505E3,1.4337944E3,2.694812E2,2.1173758E2,2.0986353E2,2.635689E2,1.8906494E1,3.8355896E1,1.6235391E2,1.3347339E2,2.6957802E1,4.9321648E1,1.2055847E1,3.7680664E0,4.6092335E1,3.9810562E0,4.2293243E1,7.413812E1,7.298506E1,6.863165E1,1.971289E1,0E0,1.4303284E1,1.7948395E1,0E0,0E0,9.930191E0,2.3445374E1,3.36792E0,9.780906E0,0E0,0E0,0E0,0E0,0E0,0E0,0E0,0E0,0E0,0E0,0E0,0E0,0E0,0E0,0E0,0E0,0E0,0E0,0E0,0E0,0E0,0E0,0E0,0E0,0E0],"parents":[2147483647,0,0,1,1,2,2,3,3,4,4,5,5,6,6,7,7,8,8,9,9,10,10,11,11,12,12,13,13,14,14,15,15,16,16,17,17,18,18,19,19,20,20,22,22,23,23,26,26,27,27,28,28,29,29],"right_children":[2,4,6,8,10,12,14,16,18,20,22,24,26,28,30,32,34,36,38,40,42,-1,44,46,-1,-1,48,50,52,54,-1,-1,-1,-1,-1,-1,-1,-1,-1,-1,-1,-1,-1,-1,-1,-1,-1,-1,-1,-1,-1,-1,-1,-1,-1],"split_conditions":[3.352206E4,6.41226E3,3.5358562E4,2.478665E4,-1.8369701E-16,-2.5881904E-1,1.262573E4,-8.660254E-1,4.3388373E-1,-2.4492937E-16,2.000526E4,7.925E3,9.659258E-1,-8.660254E-1,1.278951E4,7.818315E-1,2.076166E4,3.6570525E3,5E-1,-4.3388373E-1,-8.660254E-1,7.310848E-2,1E0,9.749279E-1,-8.7878786E-2,-9.863482E-2,3.51563E4,3.7582164E4,1E0,9.749279E-1,-9.344263E-2,9.2727005E-2,2.9558247E-2,6.600159E-2,-2.8332865E-2,-7.857093E-2,-8.249313E-3,1.8812504E-2,-7.447409E-2,7.7727295E-2,3.9408993E-2,6.225523E-2,9.4037645E-2,-9.48718E-2,-4.187688E-3,2.527739E-2,7.623683E-2,-6.9300406E-2,7.851769E-3,-2.3078611E-2,-9.332707E-2,-9.9260904E-2,-8.219364E-2,-5E-2,8.446551E-2],"split_indices":[0,1,0,0,4,4,1,7,5,7,0,2,4,4,1,5,0,1,7,5,3,0,6,5,0,0,0,0,4,5,0,0,0,0,0,0,0,0,0,0,0,0,0,0,0,0,0,0,0,0,0,0,0,0,0],"split_type":[0,0,0,0,0,0,0,0,0,0,0,0,0,0,0,0,0,0,0,0,0,0,0,0,0,0,0,0,0,0,0,0,0,0,0,0,0,0,0,0,0,0,0,0,0,0,0,0,0,0,0,0,0,0,0],"sum_hessian":[3.208E3,1.9525034E3,1.2554966E3,4.594305E2,1.4930729E3,1.8924747E2,1.0662491E3,8.302882E1,3.764017E2,1.4661356E3,2.6937288E1,9.206017E1,9.718729E1,1.0455619E3,2.0687288E1,3.7342373E1,4.568644E1,2.2877966E2,1.4762204E2,4.7636017E2,9.8977545E2,2.7186441E0,2.4218643E1,8.481017E1,7.25E0,7.225E1,2.4937288E1,1.0990593E2,9.3565594E2,6.4372883E0,1.425E1,3.337373E1,3.9686441E0,2.253051E1,2.3155933E1,1.812805E2,4.7499153E1,1.2340339E2,2.4218643E1,2.5042882E2,2.2593137E2,5.9935593E1,9.2983984E2,1.85E1,5.718644E0,6.056102E1,2.4249153E1,1.9968643E1,4.968644E0,1.4437288E1,9.546864E1,8.699686E2,6.568729E1,1E0,5.4372883E0],"tree_param":{"num_deleted":"0","num_feature":"9","num_nodes":"55","size_leaf_vector":"1"}},{"base_weights":[-7.961391E-5,1.0536982E0,-1.6394557E0,-4.153657E-1,1.5060909E0,-5.883601E-1,-1.8254689E0,9.534153E-1,-7.1891785E-1,1.5546025E0,-1.095162E0,5.63202E-1,-1.675316E0,-1.8436517E0,-8.640814E-1,1.6586161E0,3.5455143E-1,-1.2192311E0,5.8726493E-2,1.1351825E0,1.7553425E0,7.050606E-2,-1.4213321E0,7.758438E-1,-8.591359E-2,-9.3999475E-2,-1.0334922E0,-1.4982533E0,-1.8617342E0,5.6992073E-2,-8.926184E-2,8.8413015E-2,2.8382823E-2,6.2908456E-2,-2.6980152E-2,-7.4780606E-2,-7.845485E-3,6.275593E-2,-1.6857617E-2,7.3969506E-2,3.7461955E-2,5.925097E-2,8.9541726E-2,-9.05679E-2,-4.009479E-3,-1.9801175E-2,5.0189156E-2,1.0259266E-2,-6.6838205E-2,-4.7879852E-3,-9.331801E-2,-9.408319E-2,-8.0166705E-2],"categories":[],"categories_nodes":[],"categories_segments":[],"categories_sizes":[],"default_left":[0,0,0,0,0,0,0,0,0,0,0,0,0,0,0,0,0,0,0,0,0,0,0,0,0,0,0,0,0,0,0,0,0,0,0,0,0,0,0,0,0,0,0,0,0,0,0,0,0,0,0,0,0],"id":1,"left_children":[1,3,5,7,9,11,13,15,17,19,21,23,25,27,29,31,33,35,37,39,41,-1,43,45,-1,-1,47,49,51,-1,-1,-1,-1,-1,-1,-1,-1,-1,-1,-1,-1,-1,-1,-1,-1,-1,-1,-1,-1,-1,-1,-1,-1],"loss_changes":[5.535365E3,1.296886E3,2.4405371E2,1.9181549E2,1.8991064E2,2.3875243E2,1.7019287E1,3.4855988E1,1.4677934E2,1.2131494E2,2.4796211E1,4.645146E1,1.0929108E1,3.7319336E0,4.1991604E1,3.5739822E0,3.837677E1,6.714755E1,7.079341E1,6.2244446E1,1.7890137E1,0E0,1.3024364E1,2.33056E1,0E0,0E0,1.0008755E1,2.9281708E1,2.071045E0,0E0,0E0,0E0,0E0,0E0,0E0,0E0,0E0,0E0,0E0,0E0,0E0,0E0,0E0,0E0,0E0,0E0,0E0,0E0,0E0,0E0,0E0,0E0,0E0],"parents":[2147483647,0,0,1,1,2,2,3,3,4,4,5,5,6,6,7,7,8,8,9,9,10,10,11,11,12,12,13,13,14,14,15,15,16,16,17,17,18,18,19,19,20,20,22,22,23,23,26,26,27,27,28,28],"right_children":[2,4,6,8,10,12,14,16,18,20,22,24,26,28,30,32,34,36,38,40,42,-1,44,46,-1,-1,48,50,52,-1,-1,-1,-1,-1,-1,-1,-1,-1,-1,-1,-1,-1,-1,-1,-1,-1,-1,-1,-1,-1,-1,-1,-1],"split_conditions":[3.352206E4,6.41226E3,3.5358562E4,2.478665E4,-1.8369701E-16,-2.5881904E-1,1.262573E4,-8.660254E-1,4.3388373E-1,-2.4492937E-16,2.000526E4,5E-1,9.659258E-1,-8.660254E-1,1.278951E4,7.818315E-1,2.076166E4,3.6570525E3,-8.660254E-1,-4.3388373E-1,-8.660254E-1,7.050606E-2,1E0,6.91536E3,-8.591359E-2,-9.3999475E-2,-8.660254E-1,3.65149E4,1.279938E4,5.6992073E-2,-8.926184E-2,8.8413015E-2,2.8382823E-2,6.2908456E-2,-2.6980152E-2,-7.4780606E-2,-7.845485E-3,6.275593E-2,-1.6857617E-2,7.3969506E-2,3.7461955E-2,5.925097E-2,8.9541726E-2,-9.05679E-2,-4.009479E-3,-1.9801175E-2,5.0189156E-2,1.0259266E-2,-6.6838205E-2,-4.7879852E-3,-9.331801E-2,-9.408319E-2,-8.0166705E-2],"split_indices":[0,1,0,0,4,4,1,7,5,7,0,8,4,7,1,5,0,1,8,5,3,0,6,1,0,0,8,0,2,0,0,0,0,0,0,0,0,0,0,0,0,0,0,0,0,0,0,0,0,0,0,0,0],"split_type":[0,0,0,0,0,0,0,0,0,0,0,0,0,0,0,0,0,0,0,0,0,0,0,0,0,0,0,0,0,0,0,0,0,0,0,0,0,0,0,0,0,0,0,0,0,0,0,0,0,0,0,0,0],"sum_hessian":[3.2021926E3,1.9494556E3,1.2527372E3,4.590041E2,1.4904514E3,1.8898914E2,1.063748E3,8.292715E1,3.7607693E2,1.4635593E3,2.6892067E1,9.200132E1,9.6987816E1,1.0431022E3,2.0645916E1,3.726987E1,4.5657276E1,2.2849937E2,1.4757756E2,4.7589462E2,9.876648E2,2.7150147E0,2.4177052E1,8.47612E1,7.240119E0,7.207456E1,2.4913258E1,5.606427E1,9.8703784E2,6.426977E0,1.421894E1,3.3302094E1,3.9677775E0,2.2505991E1,2.3151283E1,1.8100102E2,4.749835E1,3.6151886E1,1.1142568E2,2.5005095E2,2.2584366E2,5.987756E1,9.2778723E2,1.8458433E1,5.718619E0,1.3682127E1,7.107907E1,4.963572E0,1.9949686E1,1.1917711E1,4.414656E1,9.1052954E2,7.6508354E1],"tree_param":{"num_deleted":"0","num_feature":"9","num_nodes":"53","size_leaf_vector":"1"}},{"base_weights":[-1.4305998E-4,1.0140196E0,-1.5551748E0,-3.950489E-1,1.4350497E0,-1.7313784E0,-4.1522473E-1,9.107728E-1,-6.9561833E-1,1.484862E0,-1.095103E0,-1.3946923E0,-1.7794011E0,7.526608E-1,-1.4726864E0,1.5873691E0,3.3822557E-1,-1.1389935E0,4.922695E-3,1.0795954E0,1.6797326E0,6.812369E-2,-1.3966634E0,-3.4303567E-1,-1.574486E0,-9.0010755E-2,-1.4372853E0,-8.298854E-2,9.916112E-1,-9.03531E-2,-5.123306E-1,8.4627785E-2,2.726318E-2,6.0076863E-2,-2.570122E-2,-7.092411E-2,-8.7248575E-4,1.6938357E-2,-9.128002E-2,6.2314708E-2,1.5354789E-2,5.855704E-2,8.564835E-2,-8.761784E-2,-7.259874E-3,-5.4879624E-2,6.334633E-2,-2.5754333E-2,-8.670212E-2,-8.035749E-2,5.9082713E-2,5.621347E-2,-7.388292E-2,-8.240561E-2,1.3724299E-2],"categories":[],"categories_nodes":[],"categories_segments":[],"categories_sizes":[],"default_left":[0,0,0,0,0,0,0,0,0,0,0,0,0,0,0,0,0,0,0,0,0,0,0,0,0,0,0,0,0,0,0,0,0,0,0,0,0,0,0,0,0,0,0,0,0,0,0,0,0,0,0,0,0,0,0],"id":2,"left_children":[1,3,5,7,9,11,13,15,17,19,21,23,25,27,29,31,33,35,37,39,41,-1,43,45,47,-1,49,-1,51,-1,53,-1,-1,-1,-1,-1,-1,-1,-1,-1,-1,-1,-1,-1,-1,-1,-1,-1,-1,-1,-1,-1,-1,-1,-1],"loss_changes":[5.027787E3,1.145335E3,2.520603E2,1.7517807E2,1.8890015E2,1.513623E1,2.1080513E2,3.18647E1,1.12464935E2,1.1330322E2,2.3591137E1,2.6053589E1,4.1777344E0,4.853839E1,2.7797928E1,3.2498093E0,3.4885803E1,6.948071E1,8.6987404E1,6.0928467E1,1.4601318E1,0E0,1.156839E1,2.7889524E1,1.9362854E1,0E0,2.834343E1,0E0,2.611158E1,0E0,2.2343834E1,0E0,0E0,0E0,0E0,0E0,0E0,0E0,0E0,0E0,0E0,0E0,0E0,0E0,0E0,0E0,0E0,0E0,0E0,0E0,0E0,0E0,0E0,0E0,0E0],"parents":[2147483647,0,0,1,1,2,2,3,3,4,4,5,5,6,6,7,7,8,8,9,9,10,10,11,11,12,12,13,13,14,14,15,15,16,16,17,17,18,18,19,19,20,20,22,22,23,23,24,24,26,26,28,28,30,30],"right_children":[2,4,6,8,10,12,14,16,18,20,22,24,26,28,30,32,34,36,38,40,42,-1,44,46,48,-1,50,-1,52,-1,54,-1,-1,-1,-1,-1,-1,-1,-1,-1,-1,-1,-1,-1,-1,-1,-1,-1,-1,-1,-1,-1,-1,-1,-1],"split_conditions":[3.3401562E4,6.1718423E3,8.23334E3,2.478665E4,-1.8369701E-16,3.56495E4,3.5358562E4,-8.660254E-1,4.3388373E-1,-2.4492937E-16,2.000526E4,-8.660254E-1,6.2860073E3,-5E-1,9.749279E-1,7.818315E-1,2.076166E4,3.6570525E3,5E-1,-5E-1,-8.660254E-1,6.812369E-2,1E0,1E0,-8.660254E-1,-9.0010755E-2,1.505131E4,-8.298854E-2,6.123234E-17,-9.03531E-2,2.52512E3,8.4627785E-2,2.726318E-2,6.0076863E-2,-2.570122E-2,-7.092411E-2,-8.7248575E-4,1.6938357E-2,-9.128002E-2,6.2314708E-2,1.5354789E-2,5.855704E-2,8.564835E-2,-8.761784E-2,-7.259874E-3,-5.4879624E-2,6.334633E-2,-2.5754333E-2,-8.670212E-2,-8.035749E-2,5.9082713E-2,5.621347E-2,-7.388292E-2,-8.240561E-2,1.3724299E-2],"split_indices":[0,1,1,0,4,0,0,7,5,7,0,7,1,3,5,5,0,1,7,7,3,0,6,4,8,0,2,0,8,0,2,0,0,0,0,0,0,0,0,0,0,0,0,0,0,0,0,0,0,0,0,0,0,0,0],"split_type":[0,0,0,0,0,0,0,0,0,0,0,0,0,0,0,0,0,0,0,0,0,0,0,0,0,0,0,0,0,0,0,0,0,0,0,0,0,0,0,0,0,0,0,0,0,0,0,0,0,0,0,0,0,0,0],"sum_hessian":[3.1860862E3,1.9286226E3,1.2574636E3,4.437106E2,1.484912E3,1.088668E3,1.6879568E2,8.2642166E1,3.6106842E2,1.4566473E3,2.826459E1,1.3964725E2,9.4902075E2,8.034691E1,8.844878E1,3.7066772E1,4.5575394E1,2.2073715E2,1.4033128E2,4.751117E2,9.815357E2,2.7046742E0,2.5559916E1,2.0813286E1,1.1883397E2,8.905772E2,5.844354E1,6.705222E0,7.3641685E1,6.4952156E1,2.3496622E1,3.310146E1,3.965315E0,2.2437166E1,2.313823E1,1.7649086E2,4.4246284E1,1.1937501E2,2.0956266E1,3.9027948E2,8.4832214E1,6.2427902E1,9.191078E2,1.9591383E1,5.9685316E0,1.4388116E1,6.42517E0,1.6108341E1,1.02725624E2,5.5246582E1,3.1969585E0,7.040402E1,3.2376661E0,9.167925E0,1.4328697E1],"tree_param":{"num_deleted":"0","num_feature":"9","num_nodes":"55","size_leaf_vector":"1"}},{"base_weights":[-2.5713778E-4,9.701051E-1,-1.4921681E0,-3.6002368E-1,1.3791689E0,-1.6618309E0,-3.9859822E-1,8.717594E-1,-6.3648105E-1,2.4468377E-1,1.47569E0,-1.3348955E0,-1.7086433E0,7.1650547E-1,-1.4128847E0,1.5238364E0,3.229916E-1,-1.1003532E0,7.40354E-2,8.659378E-1,-1.5563111E0,1.1233741E0,1.6445835E0,-3.2604322E-1,-1.5084425E0,-1.7288604E0,-1.3771796E0,-7.980627E-2,9.451864E-1,-8.678962E-2,-4.9134174E-1,8.1277825E-2,2.6195446E-2,5.746908E-2,-2.449045E-2,-6.785782E-2,-6.9489586E-3,5.905026E-2,-1.4851506E-2,-1.3501546E-2,6.442208E-2,2.3179801E-2,-9.497627E-2,6.5989874E-2,2.242453E-2,8.5479185E-2,7.43129E-2,-5.2462425E-2,6.0518116E-2,-2.4579871E-2,-8.313387E-2,-7.297748E-2,-8.702333E-2,-7.710043E-2,5.6658085E-2,5.3633284E-2,-7.1285844E-2,-7.93793E-2,1.3081084E-2],"categories":[],"categories_nodes":[],"categories_segments":[],"categories_sizes":[],"default_left":[0,0,0,0,0,0,0,0,0,0,0,0,0,0,0,0,0,0,0,0,0,0,0,0,0,0,0,0,0,0,0,0,0,0,0,0,0,0,0,0,0,0,0,0,0,0,0,0,0,0,0,0,0,0,0,0,0,0,0],"id":3,"left_children":[1,3,5,7,9,11,13,15,17,19,21,23,25,27,29,31,33,35,37,39,41,43,45,47,49,51,53,-1,55,-1,57,-1,-1,-1,-1,-1,-1,-1,-1,-1,-1,-1,-1,-1,-1,-1,-1,-1,-1,-1,-1,-1,-1,-1,-1,-1,-1,-1,-1],"loss_changes":[4.5795977E3,1.043395E3,2.3064038E2,1.5434421E2,1.6017993E2,1.4231934E1,1.9187738E2,2.9280453E1,1.2183455E2,1.3130888E2,7.853906E1,2.3968384E1,3.9194336E0,4.4369633E1,2.5544144E1,2.9882889E0,3.1761988E1,5.5004517E1,6.0670643E1,4.2106117E1,2.1781258E1,5.7857605E1,6.8344727E0,2.5471813E1,1.7833954E1,2.1728516E-1,2.6145798E1,0E0,2.401007E1,0E0,2.0566216E1,0E0,0E0,0E0,0E0,0E0,0E0,0E0,0E0,0E0,0E0,0E0,0E0,0E0,0E0,0E0,0E0,0E0,0E0,0E0,0E0,0E0,0E0,0E0,0E0,0E0,0E0,0E0,0E0],"parents":[2147483647,0,0,1,1,2,2,3,3,4,4,5,5,6,6,7,7,8,8,9,9,10,10,11,11,12,12,13,13,14,14,15,15,16,16,17,17,18,18,19,19,20,20,21,21,22,22,23,23,24,24,25,25,26,26,28,28,30,30],"right_children":[2,4,6,8,10,12,14,16,18,20,22,24,26,28,30,32,34,36,38,40,42,44,46,48,50,52,54,-1,56,-1,58,-1,-1,-1,-1,-1,-1,-1,-1,-1,-1,-1,-1,-1,-1,-1,-1,-1,-1,-1,-1,-1,-1,-1,-1,-1,-1,-1,-1],"split_conditions":[3.3401562E4,6.41226E3,8.23334E3,2.478665E4,-8.660254E-1,3.56495E4,3.5358562E4,-8.660254E-1,4.3388373E-1,2.784462E4,-2.4492937E-16,-8.660254E-1,6.2860073E3,-5E-1,9.749279E-1,7.818315E-1,2.076166E4,3.6570525E3,-8.660254E-1,-2.4492937E-16,6.78407E3,1.416998E4,2.866615E4,1E0,-8.660254E-1,-8.660254E-1,1.505131E4,-7.980627E-2,6.123234E-17,-8.678962E-2,2.52512E3,8.1277825E-2,2.6195446E-2,5.746908E-2,-2.449045E-2,-6.785782E-2,-6.9489586E-3,5.905026E-2,-1.4851506E-2,-1.3501546E-2,6.442208E-2,2.3179801E-2,-9.497627E-2,6.5989874E-2,2.242453E-2,8.5479185E-2,7.43129E-2,-5.2462425E-2,6.0518116E-2,-2.4579871E-2,-8.313387E-2,-7.297748E-2,-8.702333E-2,-7.710043E-2,5.6658085E-2,5.3633284E-2,-7.1285844E-2,-7.93793E-2,1.3081084E-2],"split_indices":[0,1,1,0,3,0,0,7,5,0,7,7,1,3,5,5,0,1,8,7,1,1,0,4,8,8,2,0,8,0,2,0,0,0,0,0,0,0,0,0,0,0,0,0,0,0,0,0,0,0,0,0,0,0,0,0,0,0,0],"split_type":[0,0,0,0,0,0,0,0,0,0,0,0,0,0,0,0,0,0,0,0,0,0,0,0,0,0,0,0,0,0,0,0,0,0,0,0,0,0,0,0,0,0,0,0,0,0,0,0,0,0,0,0,0,0,0,0,0,0,0],"sum_hessian":[3.161374E3,1.9157136E3,1.2456604E3,4.506103E2,1.4651033E3,1.0779078E3,1.6775261E2,8.220124E1,3.6840906E2,1.15153435E2,1.3499498E3,1.387061E2,9.3920166E2,8.0044975E1,8.7707634E1,3.675273E1,4.5448505E1,2.2255908E2,1.4584998E2,8.600511E1,2.9148315E1,4.3991913E2,9.1003076E2,2.0781162E1,1.1792494E2,8.8123645E2,5.7965233E1,6.6647916E0,7.338019E1,6.429512E1,2.3412518E1,3.2791283E1,3.9614499E0,2.2330526E1,2.311798E1,1.7531667E2,4.7242416E1,3.6068123E1,1.0978186E2,2.3413925E1,6.259119E1,4.1824913E0,2.4965824E1,3.400056E2,9.991352E1,6.3821497E2,2.7181583E2,1.434559E1,6.435572E0,1.6082554E1,1.0184239E2,4.1645897E1,8.395906E2,5.475571E1,3.2095232E0,7.015561E1,3.2245727E0,9.081807E0,1.4330711E1],"tree_param":{"num_deleted":"0","num_feature":"9","num_nodes":"59","size_leaf_vector":"1"}},{"base_weights":[-3.409783E-4,9.3751585E-1,-1.4250602E0,1.3476633E0,-2.733886E-1,-1.5931381E0,-3.619524E-1,-3.4220663E-1,1.4064234E0,4.9833357E-1,-9.4249934E-1,-1.2460151E0,-1.6462767E0,6.809389E-1,-1.3593488E0,1.3074148E0,-9.1905534E-1,1.064504E0,1.5771556E0,1.105286E0,7.592508E-2,-1.4615214E0,-3.218385E-1,-2.1727735E-1,-1.402159E0,-1.6660603E0,-1.3230135E0,-7.695057E-2,8.895983E-1,-8.365162E-2,-4.7178552E-1,-5.8802247E-2,8.3581954E-2,1.0324656E-2,-8.751106E-2,5.8787316E-2,-3.3078373E-3,8.004286E-2,5.6847453E-2,5.8268268E-2,-6.330807E-2,6.681591E-2,-1.3491526E-2,-8.0438755E-2,3.3166762E-2,-1.4155101E-3,-8.682937E-2,-7.9149984E-2,2.7825702E-2,-1.7537013E-2,-8.047903E-2,-7.021474E-2,-8.386838E-2,-7.417148E-2,5.4407217E-2,5.08175E-2,-7.112538E-2,-7.6665245E-2,1.2469123E-2],"categories":[],"categories_nodes":[],"categories_segments":[],"categories_sizes":[],"default_left":[0,0,0,0,0,0,0,0,0,0,0,0,0,0,0,0,0,0,0,0,0,0,0,0,0,0,0,0,0,0,0,0,0,0,0,0,0,0,0,0,0,0,0,0,0,0,0,0,0,0,0,0,0,0,0,0,0,0,0],"id":4,"left_children":[1,3,5,7,9,11,13,15,17,19,21,23,25,27,29,31,33,35,37,39,41,43,45,47,49,51,53,-1,55,-1,57,-1,-1,-1,-1,-1,-1,-1,-1,-1,-1,-1,-1,-1,-1,-1,-1,-1,-1,-1,-1,-1,-1,-1,-1,-1,-1,-1,-1],"loss_changes":[4.1839863E3,9.381852E2,2.21531E2,1.4055908E2,2.4759952E2,1.77417E1,1.7878162E2,4.707608E1,7.791675E1,5.706581E1,8.221701E1,2.3238617E1,3.7270508E0,4.0396286E1,2.3636887E1,1.3637161E1,3.432598E1,5.7579163E1,7.64624E0,1.4497635E1,5.8106686E1,4.4717407E1,4.9026787E1,2.254299E1,2.714769E1,2.1972656E-1,2.4180809E1,0E0,2.4201572E1,0E0,1.8986912E1,0E0,0E0,0E0,0E0,0E0,0E0,0E0,0E0,0E0,0E0,0E0,0E0,0E0,0E0,0E0,0E0,0E0,0E0,0E0,0E0,0E0,0E0,0E0,0E0,0E0,0E0,0E0,0E0],"parents":[2147483647,0,0,1,1,2,2,3,3,4,4,5,5,6,6,7,7,8,8,9,9,10,10,11,11,12,12,13,13,14,14,15,15,16,16,17,17,18,18,19,19,20,20,21,21,22,22,23,23,24,24,25,25,26,26,28,28,30,30],"right_children":[2,4,6,8,10,12,14,16,18,20,22,24,26,28,30,32,34,36,38,40,42,44,46,48,50,52,54,-1,56,-1,58,-1,-1,-1,-1,-1,-1,-1,-1,-1,-1,-1,-1,-1,-1,-1,-1,-1,-1,-1,-1,-1,-1,-1,-1,-1,-1,-1,-1],"split_conditions":[3.3305E4,-2.5881904E-1,8.23334E3,5.1644575E3,2.805248E4,3.56495E4,3.5358562E4,2.386925E4,-2.4492937E-16,2.332744E4,4.3388373E-1,-8.660254E-1,6.2860073E3,-5E-1,9.749279E-1,6.234898E-1,-5E-1,3.14978E4,3.215314E4,9.749279E-1,-8.660254E-1,1E0,5E-1,4.3388373E-1,-8.660254E-1,-8.660254E-1,1.505131E4,-7.695057E-2,6.123234E-17,-8.365162E-2,2.52512E3,-5.8802247E-2,8.3581954E-2,1.0324656E-2,-8.751106E-2,5.8787316E-2,-3.3078373E-3,8.004286E-2,5.6847453E-2,5.8268268E-2,-6.330807E-2,6.681591E-2,-1.3491526E-2,-8.0438755E-2,3.3166762E-2,-1.4155101E-3,-8.682937E-2,-7.9149984E-2,2.7825702E-2,-1.7537013E-2,-8.047903E-2,-7.021474E-2,-8.386838E-2,-7.417148E-2,5.4407217E-2,5.08175E-2,-7.112538E-2,-7.6665245E-2,1.2469123E-2],"split_indices":[0,4,1,1,0,0,0,0,7,0,5,8,1,3,5,6,8,0,0,5,8,4,7,5,7,8,2,0,8,0,2,0,0,0,0,0,0,0,0,0,0,0,0,0,0,0,0,0,0,0,0,0,0,0,0,0,0,0,0],"split_type":[0,0,0,0,0,0,0,0,0,0,0,0,0,0,0,0,0,0,0,0,0,0,0,0,0,0,0,0,0,0,0,0,0,0,0,0,0,0,0,0,0,0,0,0,0,0,0,0,0,0,0,0,0,0,0,0,0,0,0],"sum_hessian":[3.129299E3,1.8872871E3,1.2420118E3,1.4096943E3,4.775928E2,1.0720254E3,1.6998643E2,4.720866E1,1.3624857E3,2.2190863E2,2.5568419E2,1.4556754E2,9.264578E2,8.325312E1,8.673332E1,1.1903007E1,3.5305653E1,4.5616818E2,9.063175E2,9.039902E1,1.3150961E2,1.3850545E2,1.17178734E2,1.9498064E1,1.2606948E2,8.6911426E2,5.734358E1,6.6050925E0,7.6648026E1,6.343063E1,2.3302692E1,1.2373366E0,1.066567E1,1.531625E1,1.9989403E1,4.1527106E2,4.0897137E1,8.575111E2,4.8806423E1,8.866141E1,1.737607E0,2.7693338E1,1.0381627E2,1.2975616E2,8.749288E0,9.7889E1,1.9289736E1,6.6735845E0,1.282448E1,2.1216114E1,1.0485336E2,4.117155E1,8.279427E2,5.412722E1,3.216359E0,7.3195786E1,3.4522388E0,8.971297E0,1.4331395E1],"tree_param":{"num_deleted":"0","num_feature":"9","num_nodes":"59","size_leaf_vector":"1"}},{"base_weights":[-5.43742E-4,9.0018696E-1,-1.3752682E0,-3.421156E-1,1.2710521E0,-4.6787202E-1,-1.5603826E0,7.5472677E-1,-6.211811E-1,1.3167086E0,-1.015553E0,5.026136E-1,-1.3931694E0,-1.5772797E0,-6.8342435E-1,1.4316977E0,1.7272015E-1,-1.0287E0,1.783521E-2,9.4843185E-1,1.4976233E0,6.2245417E-2,-1.292244E0,6.85814E-1,-7.7121355E-2,-5.061583E-1,-1.5455436E0,-1.354588E0,-1.6020731E0,5.5217452E-2,-7.698197E-2,1.5287124E-2,7.7582E-2,5.2614715E-2,-3.0135134E-2,-6.5171055E-2,7.8695966E-4,1.6536515E-2,-8.407899E-2,5.5287283E-2,1.1105839E-2,5.257925E-2,7.63747E-2,-8.186199E-2,-5.3079943E-3,3.8244467E-2,-8.1308216E-2,3.4186505E-2,-7.918801E-2,-8.236102E-2,-3.162489E-2,-1.1587777E-2,-7.6195784E-2,-8.117773E-2,-6.4907536E-2],"categories":[],"categories_nodes":[],"categories_segments":[],"categories_sizes":[],"default_left":[0,0,0,0,0,0,0,0,0,0,0,0,0,0,0,0,0,0,0,0,0,0,0,0,0,0,0,0,0,0,0,0,0,0,0,0,0,0,0,0,0,0,0,0,0,0,0,0,0,0,0,0,0,0,0],"id":5,"left_children":[1,3,5,7,9,11,13,15,17,19,21,23,25,27,29,31,33,35,37,39,41,-1,43,45,-1,47,49,51,53,-1,-1,-1,-1,-1,-1,-1,-1,-1,-1,-1,-1,-1,-1,-1,-1,-1,-1,-1,-1,-1,-1,-1,-1,-1,-1],"loss_changes":[3.8305283E3,8.615061E2,2.0495923E2,1.3222714E2,1.516167E2,1.8830283E2,1.3986572E1,3.432933E1,8.952103E1,9.263916E1,1.9586622E1,3.9535442E1,1.3708252E1,3.3325195E0,3.3818684E1,4.985901E0,3.3594387E1,6.0241104E1,7.224415E1,5.3203003E1,1.0984131E1,0E0,1.0506138E1,1.8602715E1,0E0,2.3142675E1,7.406906E0,1.9860886E1,3.71167E0,0E0,0E0,0E0,0E0,0E0,0E0,0E0,0E0,0E0,0E0,0E0,0E0,0E0,0E0,0E0,0E0,0E0,0E0,0E0,0E0,0E0,0E0,0E0,0E0,0E0,0E0],"parents":[2147483647,0,0,1,1,2,2,3,3,4,4,5,5,6,6,7,7,8,8,9,9,10,10,11,11,12,12,13,13,14,14,15,15,16,16,17,17,18,18,19,19,20,20,22,22,23,23,25,25,26,26,27,27,28,28],"right_children":[2,4,6,8,10,12,14,16,18,20,22,24,26,28,30,32,34,36,38,40,42,-1,44,46,-1,48,50,52,54,-1,-1,-1,-1,-1,-1,-1,-1,-1,-1,-1,-1,-1,-1,-1,-1,-1,-1,-1,-1,-1,-1,-1,-1,-1,-1],"split_conditions":[3.3305E4,6.1718423E3,3.5358562E4,2.495404E4,-1.8369701E-16,-2.5881904E-1,1.262573E4,-8.660254E-1,4.3388373E-1,-2.4492937E-16,2.000526E4,7.925E3,-8.660254E-1,-8.660254E-1,1.278951E4,6.234898E-1,2.076166E4,3.6570525E3,5E-1,-5E-1,-8.660254E-1,6.2245417E-2,1E0,1.675454E4,-7.7121355E-2,3.402888E4,1E0,3.7582164E4,1E0,5.5217452E-2,-7.698197E-2,1.5287124E-2,7.7582E-2,5.2614715E-2,-3.0135134E-2,-6.5171055E-2,7.8695966E-4,1.6536515E-2,-8.407899E-2,5.5287283E-2,1.1105839E-2,5.257925E-2,7.63747E-2,-8.186199E-2,-5.3079943E-3,3.8244467E-2,-8.1308216E-2,3.4186505E-2,-7.918801E-2,-8.236102E-2,-3.162489E-2,-1.1587777E-2,-7.6195784E-2,-8.117773E-2,-6.4907536E-2],"split_indices":[0,1,0,0,4,4,1,7,5,7,0,2,8,4,1,6,0,1,7,7,3,0,6,1,0,0,4,0,4,0,0,0,0,0,0,0,0,0,0,0,0,0,0,0,0,0,0,0,0,0,0,0,0,0,0],"split_type":[0,0,0,0,0,0,0,0,0,0,0,0,0,0,0,0,0,0,0,0,0,0,0,0,0,0,0,0,0,0,0,0,0,0,0,0,0,0,0,0,0,0,0,0,0,0,0,0,0,0,0,0,0,0,0],"sum_hessian":[3.0914856E3,1.8679408E3,1.2235448E3,4.29455E2,1.4384857E3,2.0791443E2,1.0156304E3,8.6757545E1,3.4269742E2,1.4107418E3,2.7743988E1,1.01702225E2,1.062122E2,9.956478E2,1.9982555E1,3.943182E1,4.732573E1,2.088793E2,1.3381813E2,4.6678326E2,9.439585E2,2.644024E0,2.5099964E1,9.395052E1,7.7517033E0,1.620431E1,9.000789E1,1.05318954E2,8.9032886E2,6.3771954E0,1.360536E1,4.13776E0,3.529406E1,2.2006433E1,2.5319298E1,1.651829E2,4.3696392E1,1.13690834E2,2.012729E1,3.8325174E2,8.353154E1,6.152056E1,8.824379E2,1.9149565E1,5.950401E0,9.149049E1,2.4600341E0,7.874638E0,8.329671E0,8.0265434E1,9.742455E0,1.411164E1,9.120731E1,8.274987E2,6.2830177E1],"tree_param":{"num_deleted":"0","num_feature":"9","num_nodes":"55","size_leaf_vector":"1"}},{"base_weights":[-7.066335E-4,8.591482E-1,-1.3407112E0,1.2478863E0,-2.5901863E-1,-1.4966726E0,-3.5338363E-1,-3.2462078E-1,1.3034059E0,4.629171E-1,-8.6841744E-1,-1.1901252E0,-1.5412858E0,6.301555E-1,-1.2686143E0,1.2289358E0,-8.602789E-1,9.723722E-1,1.4716803E0,1.2950147E0,1.9996232E-1,-1.3714468E0,-2.920622E-1,-2.5039664E-1,-1.3565711E0,-1.561055E0,-1.2215469E0,-7.3360704E-2,8.350489E-1,-7.8668036E-2,-4.2247507E-1,-5.7783123E-2,7.936625E-2,9.495193E-3,-8.295751E-2,5.436579E-2,-7.723453E-3,7.697167E-2,6.557315E-2,7.796188E-2,5.3418893E-2,1.9984338E-2,-5.1220514E-2,-7.5746484E-2,3.475159E-2,-1.6081171E-3,-8.0970004E-2,2.7775815E-2,-7.718522E-2,-2.178348E-2,-7.504072E-2,-6.503289E-2,-7.8621246E-2,-6.906829E-2,5.4886162E-2,4.7050335E-2,-7.792871E-2,-7.186267E-2,1.2449603E-2],"categories":[],"categories_nodes":[],"categories_segments":[],"categories_sizes":[],"default_left":[0,0,0,0,0,0,0,0,0,0,0,0,0,0,0,0,0,0,0,0,0,0,0,0,0,0,0,0,0,0,0,0,0,0,0,0,0,0,0,0,0,0,0,0,0,0,0,0,0,0,0,0,0,0,0,0,0,0,0],"id":6,"left_children":[1,3,5,7,9,11,13,15,17,19,21,23,25,27,29,31,33,35,37,39,41,43,45,47,49,51,53,-1,55,-1,57,-1,-1,-1,-1,-1,-1,-1,-1,-1,-1,-1,-1,-1,-1,-1,-1,-1,-1,-1,-1,-1,-1,-1,-1,-1,-1,-1,-1],"loss_changes":[3.514655E3,8.079795E2,1.8306543E2,1.2080908E2,2.1164572E2,1.224292E1,1.4838574E2,4.0855854E1,7.277222E1,4.7973614E1,7.518843E1,2.0801346E1,3.7514648E0,3.5473667E1,2.131984E1,1.2665512E1,3.0644468E1,5.8697144E1,7.546997E0,1.4930191E0,4.165951E1,4.2250793E1,4.2302177E1,2.333354E1,1.4568466E1,4.4018555E-1,2.2541542E1,0E0,2.0042202E1,0E0,1.6672321E1,0E0,0E0,0E0,0E0,0E0,0E0,0E0,0E0,0E0,0E0,0E0,0E0,0E0,0E0,0E0,0E0,0E0,0E0,0E0,0E0,0E0,0E0,0E0,0E0,0E0,0E0,0E0,0E0],"parents":[2147483647,0,0,1,1,2,2,3,3,4,4,5,5,6,6,7,7,8,8,9,9,10,10,11,11,12,12,13,13,14,14,15,15,16,16,17,17,18,18,19,19,20,20,21,21,22,22,23,23,24,24,25,25,26,26,28,28,30,30],"right_children":[2,4,6,8,10,12,14,16,18,20,22,24,26,28,30,32,34,36,38,40,42,44,46,48,50,52,54,-1,56,-1,58,-1,-1,-1,-1,-1,-1,-1,-1,-1,-1,-1,-1,-1,-1,-1,-1,-1,-1,-1,-1,-1,-1,-1,-1,-1,-1,-1,-1],"split_conditions":[3.3401562E4,-2.5881904E-1,8.23334E3,5.1644575E3,2.805248E4,3.56495E4,3.5358562E4,2.386925E4,-2.4492937E-16,2.076166E4,4.3388373E-1,-8.660254E-1,6.2860073E3,-5E-1,9.749279E-1,6.234898E-1,-5E-1,3.14978E4,2.866615E4,1.783961E4,1.1668728E4,1E0,5E-1,1.2246469E-16,-8.660254E-1,-8.660254E-1,1.505131E4,-7.3360704E-2,1.675454E4,-7.8668036E-2,2.52512E3,-5.7783123E-2,7.936625E-2,9.495193E-3,-8.295751E-2,5.436579E-2,-7.723453E-3,7.697167E-2,6.557315E-2,7.796188E-2,5.3418893E-2,1.9984338E-2,-5.1220514E-2,-7.5746484E-2,3.475159E-2,-1.6081171E-3,-8.0970004E-2,2.7775815E-2,-7.718522E-2,-2.178348E-2,-7.504072E-2,-6.503289E-2,-7.8621246E-2,-6.906829E-2,5.4886162E-2,4.7050335E-2,-7.792871E-2,-7.186267E-2,1.2449603E-2],"split_indices":[0,4,1,1,0,0,0,0,7,0,5,7,1,3,5,6,8,0,0,0,2,4,7,3,8,8,2,0,1,0,2,0,0,0,0,0,0,0,0,0,0,0,0,0,0,0,0,0,0,0,0,0,0,0,0,0,0,0,0],"split_type":[0,0,0,0,0,0,0,0,0,0,0,0,0,0,0,0,0,0,0,0,0,0,0,0,0,0,0,0,0,0,0,0,0,0,0,0,0,0,0,0,0,0,0,0,0,0,0,0,0,0,0,0,0,0,0,0,0,0,0],"sum_hessian":[3.0483613E3,1.8570728E3,1.1912886E3,1.3779153E3,4.7915747E2,1.0283339E3,1.6295468E2,4.6824814E1,1.3310905E3,2.1943732E2,2.5972015E2,1.3416072E2,8.9417316E2,7.869632E1,8.425836E1,1.1673676E1,3.515114E1,4.5088223E2,8.802083E2,5.1750977E1,1.6768634E2,1.3794524E2,1.2177491E2,2.056397E1,1.1359675E2,8.3845E2,5.572314E1,6.4554043E0,7.224092E1,6.1315464E1,2.2942898E1,1.2345828E0,1.0439093E1,1.5516153E1,1.9634987E1,4.0917896E2,4.170329E1,6.125592E2,2.6764908E2,2.117933E1,3.0571644E1,1.4474803E2,2.2938305E1,1.2923865E2,8.706589E0,1.0269158E2,1.908333E1,1.3020705E1,7.543266E0,1.5927865E1,9.7668884E1,3.9906006E1,7.98544E2,5.2509174E1,3.2139664E0,6.975976E1,2.481163E0,8.681783E0,1.4261115E1],"tree_param":{"num_deleted":"0","num_feature":"9","num_nodes":"59","size_leaf_vector":"1"}},{"base_weights":[-8.8907045E-4,8.204754E-1,-1.3105203E0,-3.0223185E-1,1.1896173E0,-4.6002206E-1,-1.466881E0,9.9674964E-1,-4.9574003E-1,2.1728186E-1,1.2739651E0,4.5223862E-1,-1.3577194E0,-1.4834247E0,-6.196243E-1,-7.370652E-2,1.0945926E0,-8.325136E-1,5.2256227E-2,7.453729E-1,-1.3878906E0,9.468994E-1,1.4355906E0,6.255766E-1,-7.237789E-2,-7.740841E-2,-7.857065E-1,-1.3861628E0,-7.7132545E-2,5.321088E-2,-7.2578155E-2,5.799988E-2,-5.262533E-2,1.1293886E-2,-5.402213E-2,5.3574074E-2,-1.356897E-2,-1.5350628E-2,5.6991722E-2,7.091122E-2,-8.7200105E-2,5.7027575E-2,1.4830566E-2,7.303151E-2,5.154729E-2,3.5014875E-2,-7.2174855E-2,-1.4381982E-2,-7.489103E-2,-3.8179126E-2,-7.262121E-2],"categories":[],"categories_nodes":[],"categories_segments":[],"categories_sizes":[],"default_left":[0,0,0,0,0,0,0,0,0,0,0,0,0,0,0,0,0,0,0,0,0,0,0,0,0,0,0,0,0,0,0,0,0,0,0,0,0,0,0,0,0,0,0,0,0,0,0,0,0,0,0],"id":7,"left_children":[1,3,5,7,9,11,13,15,17,19,21,23,25,27,29,-1,31,33,35,37,39,41,43,45,-1,-1,47,49,-1,-1,-1,-1,-1,-1,-1,-1,-1,-1,-1,-1,-1,-1,-1,-1,-1,-1,-1,-1,-1,-1,-1],"loss_changes":[3.2308103E3,7.653446E2,1.5327588E2,1.1550035E2,1.1366626E2,1.4903418E2,1.2781006E1,1.6035164E1,7.365642E1,9.6062935E1,6.620923E1,3.0753578E1,8.762054E0,3.380127E0,3.017419E1,0E0,9.359543E0,6.508708E1,5.068211E1,3.5637093E1,3.0554394E1,5.3267303E1,7.142334E0,1.3960209E1,0E0,0E0,8.404146E0,1.42547E1,0E0,0E0,0E0,0E0,0E0,0E0,0E0,0E0,0E0,0E0,0E0,0E0,0E0,0E0,0E0,0E0,0E0,0E0,0E0,0E0,0E0,0E0,0E0],"parents":[2147483647,0,0,1,1,2,2,3,3,4,4,5,5,6,6,7,7,8,8,9,9,10,10,11,11,12,12,13,13,14,14,16,16,17,17,18,18,19,19,20,20,21,21,22,22,23,23,26,26,27,27],"right_children":[2,4,6,8,10,12,14,16,18,20,22,24,26,28,30,-1,32,34,36,38,40,42,44,46,-1,-1,48,50,-1,-1,-1,-1,-1,-1,-1,-1,-1,-1,-1,-1,-1,-1,-1,-1,-1,-1,-1,-1,-1,-1,-1],"split_conditions":[3.352206E4,6.67838E3,3.5358562E4,2.332744E4,-8.660254E-1,-2.5881904E-1,1.262573E4,-8.660254E-1,4.3388373E-1,2.784462E4,-2.4492937E-16,5E-1,9.659258E-1,4.217798E4,1.278951E4,-7.370652E-2,9.749279E-1,-5E-1,-8.660254E-1,-2.4492937E-16,6.78407E3,1.416998E4,3.215314E4,1.675454E4,-7.237789E-2,-7.740841E-2,6.234898E-1,-8.660254E-1,-7.7132545E-2,5.321088E-2,-7.2578155E-2,5.799988E-2,-5.262533E-2,1.1293886E-2,-5.402213E-2,5.3574074E-2,-1.356897E-2,-1.5350628E-2,5.6991722E-2,7.091122E-2,-8.7200105E-2,5.7027575E-2,1.4830566E-2,7.303151E-2,5.154729E-2,3.5014875E-2,-7.2174855E-2,-1.4381982E-2,-7.489103E-2,-3.8179126E-2,-7.262121E-2],"split_indices":[0,1,0,0,3,4,1,8,5,0,7,8,4,0,1,0,5,4,8,7,1,1,0,1,0,0,6,4,0,0,0,0,0,0,0,0,0,0,0,0,0,0,0,0,0,0,0,0,0,0,0],"split_type":[0,0,0,0,0,0,0,0,0,0,0,0,0,0,0,0,0,0,0,0,0,0,0,0,0,0,0,0,0,0,0,0,0,0,0,0,0,0,0,0,0,0,0,0,0,0,0,0,0,0,0],"sum_hessian":[3.001493E3,1.8448362E3,1.1566567E3,4.565295E2,1.3883066E3,1.802358E2,9.764209E2,5.8652973E1,3.9787653E2,1.11104515E2,1.2772021E3,8.96389E1,9.0596886E1,9.5698376E2,1.9437124E1,1.698311E0,5.6954662E1,2.4610959E2,1.5176694E2,8.400355E1,2.7100964E1,4.2467917E2,8.5252295E2,8.275869E1,6.8802147E0,6.66872E1,2.3909687E1,3.7142667E2,5.8555707E2,6.3352966E0,1.3101827E1,5.571714E1,1.2375191E0,4.672649E1,1.993831E2,3.6019627E1,1.15747314E2,2.2962772E1,6.1040775E1,2.7160778E0,2.4384886E1,3.266506E2,9.8028564E1,8.003851E2,5.2137844E1,8.0512665E1,2.2460277E0,1.489544E1,9.014247E0,3.693318E1,3.344935E2],"tree_param":{"num_deleted":"0","num_feature":"9","num_nodes":"51","size_leaf_vector":"1"}},{"base_weights":[-1.0203396E-3,8.045939E-1,-1.2520037E0,1.1674961E0,-2.3370826E-1,-4.219126E-1,-1.4264545E0,1.2286823E0,-1.712723E-1,4.3400082E-1,-8.17715E-1,4.3930694E-1,-1.2688811E0,-1.4427093E0,-5.991994E-1,-9.3411803E-1,1.2509665E0,5.127388E-1,-1.5841495E0,1.2123859E0,1.9247615E-1,-1.2794228E0,-2.863025E-1,6.064262E-1,-7.270214E-2,-4.3635467E-1,-1.4170408E0,-1.1235003E0,-1.4598671E0,5.1143534E-2,-7.0645414E-2,5.415116E-2,-7.387143E-2,4.9067806E-2,6.880563E-2,-8.2383E-2,4.714264E-2,-1.0677569E-1,-1.3103522E-2,7.367928E-2,4.955649E-2,5.9494223E-2,-1.9001132E-3,-7.1220994E-2,3.571642E-2,-1.6833524E-3,-7.7566646E-2,5.464961E-3,4.8101734E-2,3.3656873E-2,-7.3446065E-2,-7.6296486E-2,-2.751602E-2,-7.424746E-2,5.387369E-3,-7.400994E-2,-6.0110487E-2],"categories":[],"categories_nodes":[],"categories_segments":[],"categories_sizes":[],"default_left":[0,0,0,0,0,0,0,0,0,0,0,0,0,0,0,0,0,0,0,0,0,0,0,0,0,0,0,0,0,0,0,0,0,0,0,0,0,0,0,0,0,0,0,0,0,0,0,0,0,0,0,0,0,0,0,0,0],"id":8,"left_children":[1,3,5,7,9,11,13,15,17,19,21,23,25,27,29,31,33,35,37,39,41,43,45,47,-1,49,51,53,55,-1,-1,-1,-1,-1,-1,-1,-1,-1,-1,-1,-1,-1,-1,-1,-1,-1,-1,-1,-1,-1,-1,-1,-1,-1,-1,-1,-1],"loss_changes":[2.9764534E3,6.7719116E2,1.6692981E2,1.09268555E2,1.821127E2,1.4814267E2,1.1985107E1,6.253723E1,5.789544E1,4.0773724E1,6.0724197E1,3.286001E1,1.1995941E1,3.4886475E0,2.8007725E1,1.6458878E1,4.118811E1,3.923723E1,1.3663673E1,1.5137558E0,3.858674E1,3.9449615E1,3.735384E1,1.643689E1,0E0,2.0344263E1,7.3116455E0,2.3349564E1,2.8583984E0,0E0,0E0,0E0,0E0,0E0,0E0,0E0,0E0,0E0,0E0,0E0,0E0,0E0,0E0,0E0,0E0,0E0,0E0,0E0,0E0,0E0,0E0,0E0,0E0,0E0,0E0,0E0,0E0],"parents":[2147483647,0,0,1,1,2,2,3,3,4,4,5,5,6,6,7,7,8,8,9,9,10,10,11,11,12,12,13,13,14,14,15,15,16,16,17,17,18,18,19,19,20,20,21,21,22,22,23,23,25,25,26,26,27,27,28,28],"right_children":[2,4,6,8,10,12,14,16,18,20,22,24,26,28,30,32,34,36,38,40,42,44,46,48,-1,50,52,54,56,-1,-1,-1,-1,-1,-1,-1,-1,-1,-1,-1,-1,-1,-1,-1,-1,-1,-1,-1,-1,-1,-1,-1,-1,-1,-1,-1,-1],"split_conditions":[3.3305E4,-2.5881904E-1,3.5358562E4,5E-1,2.805248E4,-2.5881904E-1,1.262573E4,2.51788E3,2.959779E4,2.076166E4,4.3388373E-1,7.925E3,-8.660254E-1,-8.660254E-1,1.278951E4,2.076166E4,-2.4492937E-16,6.21354E3,2.5881904E-1,1.783961E4,-8.660254E-1,1E0,5E-1,2.74341E3,-7.270214E-2,3.402888E4,3.51563E4,9.749279E-1,1.279938E4,5.1143534E-2,-7.0645414E-2,5.415116E-2,-7.387143E-2,4.9067806E-2,6.880563E-2,-8.2383E-2,4.714264E-2,-1.0677569E-1,-1.3103522E-2,7.367928E-2,4.955649E-2,5.9494223E-2,-1.9001132E-3,-7.1220994E-2,3.571642E-2,-1.6833524E-3,-7.7566646E-2,5.464961E-3,4.8101734E-2,3.3656873E-2,-7.3446065E-2,-7.6296486E-2,-2.751602E-2,-7.424746E-2,5.387369E-3,-7.400994E-2,-6.0110487E-2],"split_indices":[0,4,0,8,0,4,1,1,0,0,5,2,8,7,1,0,7,1,3,0,8,4,7,2,0,0,0,5,2,0,0,0,0,0,0,0,0,0,0,0,0,0,0,0,0,0,0,0,0,0,0,0,0,0,0,0,0],"split_type":[0,0,0,0,0,0,0,0,0,0,0,0,0,0,0,0,0,0,0,0,0,0,0,0,0,0,0,0,0,0,0,0,0,0,0,0,0,0,0,0,0,0,0,0,0,0,0,0,0,0,0,0,0,0,0,0,0],"sum_hessian":[2.951388E3,1.7954818E3,1.1559061E3,1.3303723E3,4.651095E2,2.0133072E2,9.5457544E2,1.2723059E3,5.8066414E1,2.1712363E2,2.4798586E2,1.0006418E2,1.0126654E2,9.354507E2,1.9124743E1,1.2558109E1,1.2597478E3,3.9554253E1,1.851216E1,5.0465103E1,1.6665852E2,1.319425E2,1.1604335E2,9.2572815E1,7.491365E0,1.5895131E1,8.537141E1,5.110752E1,8.8434314E2,6.303039E0,1.2821704E1,2.453957E0,1.0104152E1,4.0216922E2,8.5757855E2,6.0973606E0,3.3456894E1,1.2629742E1,5.8824186E0,2.0547754E1,2.9917349E1,3.050101E1,1.3615752E2,1.2326362E2,8.67889E0,9.758213E1,1.8461222E1,3.914999E1,5.3422825E1,7.82995E0,8.065182E0,7.516731E1,1.0204099E1,3.934982E1,1.1757702E1,8.1526587E2,6.907731E1],"tree_param":{"num_deleted":"0","num_feature":"9","num_nodes":"57","size_leaf_vector":"1"}},{"base_weights":[-1.1910019E-3,7.764303E-1,-1.2172716E0,1.1295053E0,-2.2374822E-1,-1.3691152E0,-2.948282E-1,1.1895034E0,-1.6590612E-1,4.152402E-1,-7.857958E-1,-8.6977595E-1,-1.4010557E0,5.6212795E-1,-1.1582861E0,-3.2319412E-1,1.2207503E0,4.914827E-1,-1.5009205E0,9.280231E-1,6.790146E-2,-1.2371058E0,-2.735771E-1,3.1924024E-1,-1.2400249E0,-1.427166E0,-1.0148509E0,-6.945457E-2,7.401923E-1,-7.294196E-2,-3.5264057E-1,6.675445E-2,-5.2063406E-2,4.753333E-2,6.7381084E-2,-7.930995E-2,4.536399E-2,-1.00870386E-1,-1.2540884E-2,4.9204785E-2,-5.939525E-2,1.3591418E-2,-8.320882E-2,-6.8988316E-2,3.3934545E-2,-1.6000029E-3,-7.525489E-2,-6.73291E-2,5.4362934E-2,-7.324722E-2,-1.4883082E-3,-5.6166906E-2,-7.228332E-2,-5.759889E-2,5.010813E-2,4.2910513E-2,-6.834931E-2,-7.020917E-2,1.22664785E-2],"categories":[],"categories_nodes":[],"categories_segments":[],"categories_sizes":[],"default_left":[0,0,0,0,0,0,0,0,0,0,0,0,0,0,0,0,0,0,0,0,0,0,0,0,0,0,0,0,0,0,0,0,0,0,0,0,0,0,0,0,0,0,0,0,0,0,0,0,0,0,0,0,0,0,0,0,0,0,0],"id":9,"left_children":[1,3,5,7,9,11,13,15,17,19,21,23,25,27,29,31,33,35,37,39,41,43,45,47,49,51,53,-1,55,-1,57,-1,-1,-1,-1,-1,-1,-1,-1,-1,-1,-1,-1,-1,-1,-1,-1,-1,-1,-1,-1,-1,-1,-1,-1,-1,-1,-1,-1],"loss_changes":[2.7432664E3,6.2511487E2,1.580791E2,1.0185474E2,1.6642953E2,1.4272339E1,1.1993133E2,5.948706E1,5.23202E1,3.8602764E1,5.662407E1,2.7263298E1,7.7404785E0,2.9372047E1,1.9007492E1,3.246009E1,4.069751E1,3.6112206E1,1.2174427E1,1.1560883E1,4.6548138E1,3.6660416E1,3.4671143E1,2.102191E1,1.2680397E1,3.159912E0,1.8072353E1,0E0,1.9926193E1,0E0,1.4947485E1,0E0,0E0,0E0,0E0,0E0,0E0,0E0,0E0,0E0,0E0,0E0,0E0,0E0,0E0,0E0,0E0,0E0,0E0,0E0,0E0,0E0,0E0,0E0,0E0,0E0,0E0,0E0,0E0],"parents":[2147483647,0,0,1,1,2,2,3,3,4,4,5,5,6,6,7,7,8,8,9,9,10,10,11,11,12,12,13,13,14,14,15,15,16,16,17,17,18,18,19,19,20,20,21,21,22,22,23,23,24,24,25,25,26,26,28,28,30,30],"right_children":[2,4,6,8,10,12,14,16,18,20,22,24,26,28,30,32,34,36,38,40,42,44,46,48,50,52,54,-1,56,-1,58,-1,-1,-1,-1,-1,-1,-1,-1,-1,-1,-1,-1,-1,-1,-1,-1,-1,-1,-1,-1,-1,-1,-1,-1,-1,-1,-1,-1],"split_conditions":[3.3305E4,-2.5881904E-1,8.23334E3,5E-1,2.805248E4,-8.660254E-1,3.5358562E4,4.21026E3,2.959779E4,2.332744E4,4.3388373E-1,3.479873E4,6.2860073E3,-5E-1,9.749279E-1,2.166781E4,-2.4492937E-16,6.21354E3,2.5881904E-1,9.749279E-1,1.1668728E4,1E0,5E-1,4.3388373E-1,1E0,-8.660254E-1,1.505131E4,-6.945457E-2,6.123234E-17,-7.294196E-2,0E0,6.675445E-2,-5.2063406E-2,4.753333E-2,6.7381084E-2,-7.930995E-2,4.536399E-2,-1.00870386E-1,-1.2540884E-2,4.9204785E-2,-5.939525E-2,1.3591418E-2,-8.320882E-2,-6.8988316E-2,3.3934545E-2,-1.6000029E-3,-7.525489E-2,-6.73291E-2,5.4362934E-2,-7.324722E-2,-1.4883082E-3,-5.6166906E-2,-7.228332E-2,-5.759889E-2,5.010813E-2,4.2910513E-2,-6.834931E-2,-7.020917E-2,1.22664785E-2],"split_indices":[0,4,1,8,0,8,0,1,0,0,5,0,1,3,5,0,7,1,3,5,2,4,7,5,4,7,2,0,8,0,3,0,0,0,0,0,0,0,0,0,0,0,0,0,0,0,0,0,0,0,0,0,0,0,0,0,0,0,0],"split_type":[0,0,0,0,0,0,0,0,0,0,0,0,0,0,0,0,0,0,0,0,0,0,0,0,0,0,0,0,0,0,0,0,0,0,0,0,0,0,0,0,0,0,0,0,0,0,0,0,0,0,0,0,0,0,0,0,0,0,0],"sum_hessian":[2.8989321E3,1.7684562E3,1.1304758E3,1.3069559E3,4.615003E2,9.702744E2,1.6020135E2,1.2491807E3,5.7775227E1,2.1609006E2,2.4541025E2,6.0030163E1,9.1024426E2,8.057854E1,7.962281E1,2.5092281E1,1.2240884E3,3.91358E1,1.8639427E1,8.658748E1,1.2950258E2,1.297095E2,1.15700745E2,1.4286929E1,4.5743233E1,8.5007764E2,6.0166656E1,6.169744E0,7.44088E1,5.7398888E1,2.222392E1,7.3225946E0,1.7769688E1,3.9394705E2,8.3014136E2,6.0566587E0,3.307914E1,1.275559E1,5.883837E0,8.487323E1,1.7142506E0,1.1661584E2,1.2886749E1,1.2098045E2,8.729049E0,9.758442E1,1.811633E1,4.270642E0,1.0016288E1,3.839695E1,7.3462844E0,5.2333866E1,7.977438E2,5.6738174E1,3.428483E0,7.102365E1,3.3851418E0,7.5677056E0,1.4656215E1],"tree_param":{"num_deleted":"0","num_feature":"9","num_nodes":"59","size_leaf_vector":"1"}},{"base_weights":[-1.4603345E-3,8.217708E-1,-1.084157E0,1.1353072E0,-1.299722E-1,-1.3207902E0,-1.7897455E-1,-4.7872508E-1,1.1741458E0,3.9623085E-1,-7.385488E-1,-7.006331E-1,-1.3671225E0,4.6590158E-1,-1.1107659E0,1.0177929E0,-1.080132E0,8.772562E-1,1.3321942E0,1.1394663E0,1.711889E-1,-1.3067138E0,-9.847833E-2,1.8128131E-1,-1.1994796E0,-8.8786185E-1,-1.4022098E0,-7.6269996E-1,8.019304E-1,9.534188E-1,-1.2022295E0,6.181532E-2,2.3034548E-2,2.1661796E-2,-7.5147025E-2,5.218047E-2,1.3335592E-2,6.743173E-2,3.7375905E-2,7.021068E-2,4.5940783E-2,1.778561E-2,-4.842256E-2,-1.5459153E-2,-7.521937E-2,2.641574E-2,-4.130156E-2,-6.907121E-2,4.5773268E-2,-7.14437E-2,-1.4234257E-3,-6.55083E-2,5.077069E-2,-4.2528324E-2,-7.0624046E-2,4.7362033E-2,-9.4702646E-2,1.0959907E-2,5.4887027E-2,-4.1779246E-2,9.0529546E-2,-7.183208E-2,-2.4587015E-2],"categories":[],"categories_nodes":[],"categories_segments":[],"categories_sizes":[],"default_left":[0,0,0,0,0,0,0,0,0,0,0,0,0,0,0,0,0,0,0,0,0,0,0,0,0,0,0,0,0,0,0,0,0,0,0,0,0,0,0,0,0,0,0,0,0,0,0,0,0,0,0,0,0,0,0,0,0,0,0,0,0,0,0],"id":10,"left_children":[1,3,5,7,9,11,13,15,17,19,21,23,25,27,29,31,33,35,37,39,41,43,45,47,49,51,53,55,57,59,61,-1,-1,-1,-1,-1,-1,-1,-1,-1,-1,-1,-1,-1,-1,-1,-1,-1,-1,-1,-1,-1,-1,-1,-1,-1,-1,-1,-1,-1,-1,-1,-1],"loss_changes":[2.5364973E3,4.8255542E2,2.630525E2,7.679675E1,1.2886523E2,2.7036987E1,1.5428453E2,2.7457554E1,5.4567993E1,3.5927963E1,6.770379E1,3.0917118E1,1.3982178E1,6.3338394E1,2.0962677E1,5.151348E-1,1.4328911E1,4.1931427E1,6.4244385E0,1.6316681E0,3.545296E1,1.9003174E1,4.0928406E1,3.1186163E1,1.19673E1,5.3171135E1,3.56958E0,6.591177E1,2.0409264E1,9.197478E0,1.6106491E1,0E0,0E0,0E0,0E0,0E0,0E0,0E0,0E0,0E0,0E0,0E0,0E0,0E0,0E0,0E0,0E0,0E0,0E0,0E0,0E0,0E0,0E0,0E0,0E0,0E0,0E0,0E0,0E0,0E0,0E0,0E0,0E0],"parents":[2147483647,0,0,1,1,2,2,3,3,4,4,5,5,6,6,7,7,8,8,9,9,10,10,11,11,12,12,13,13,14,14,15,15,16,16,17,17,18,18,19,19,20,20,21,21,22,22,23,23,24,24,25,25,26,26,27,27,28,28,29,29,30,30],"right_children":[2,4,6,8,10,12,14,16,18,20,22,24,26,28,30,32,34,36,38,40,42,44,46,48,50,52,54,56,58,60,62,-1,-1,-1,-1,-1,-1,-1,-1,-1,-1,-1,-1,-1,-1,-1,-1,-1,-1,-1,-1,-1,-1,-1,-1,-1,-1,-1,-1,-1,-1,-1,-1],"split_conditions":[3.225637E4,-2.5881904E-1,7.22698E3,4.21026E3,2.805248E4,-8.660254E-1,3.5358562E4,2.166781E4,-2.4492937E-16,2.076166E4,4.3388373E-1,3.479873E4,-8.660254E-1,-2.5881904E-1,7.29338E3,9.62763E3,-8.660254E-1,1.416998E4,-1.8369701E-16,1.783961E4,1.1668728E4,-8.660254E-1,-5E-1,4.3388373E-1,1E0,1E0,-9.659258E-1,-8.660254E-1,-2.4492937E-16,8.660254E-1,9.749279E-1,6.181532E-2,2.3034548E-2,2.1661796E-2,-7.5147025E-2,5.218047E-2,1.3335592E-2,6.743173E-2,3.7375905E-2,7.021068E-2,4.5940783E-2,1.778561E-2,-4.842256E-2,-1.5459153E-2,-7.521937E-2,2.641574E-2,-4.130156E-2,-6.907121E-2,4.5773268E-2,-7.14437E-2,-1.4234257E-3,-6.55083E-2,5.077069E-2,-4.2528324E-2,-7.0624046E-2,4.7362033E-2,-9.4702646E-2,1.0959907E-2,5.4887027E-2,-4.1779246E-2,9.0529546E-2,-7.183208E-2,-2.4587015E-2],"split_indices":[0,4,1,1,0,8,0,0,7,0,5,0,7,3,1,2,8,1,8,0,2,7,7,5,4,4,4,7,7,7,5,0,0,0,0,0,0,0,0,0,0,0,0,0,0,0,0,0,0,0,0,0,0,0,0,0,0,0,0,0,0,0,0],"split_type":[0,0,0,0,0,0,0,0,0,0,0,0,0,0,0,0,0,0,0,0,0,0,0,0,0,0,0,0,0,0,0,0,0,0,0,0,0,0,0,0,0,0,0,0,0,0,0,0,0,0,0,0,0,0,0,0,0,0,0,0,0,0,0],"sum_hessian":[2.8438103E3,1.6156147E3,1.2281957E3,1.21512E3,4.004947E2,9.732969E2,2.548988E2,2.828636E1,1.1868336E3,2.1497041E2,1.8552428E2,6.878152E1,9.045154E2,1.5093759E2,1.0396122E2,7.910305E0,2.0376055E1,4.1458932E2,7.722443E2,4.9017914E1,1.659525E2,9.773093E1,8.779336E1,2.5079636E1,4.370188E1,6.349771E1,8.4101764E2,3.2143513E1,1.1879408E2,4.0111876E0,9.995003E1,4.806045E0,3.1042602E0,4.4441924E0,1.5931861E1,3.2525797E2,8.933135E1,7.498528E2,2.2391573E1,1.9844069E1,2.9173843E1,1.4341888E2,2.2533606E1,1.6587685E1,8.114324E1,4.730958E1,4.0483772E1,7.7347336E0,1.7344902E1,3.6359123E1,7.3427553E0,5.2222137E1,1.1275571E1,1.6904772E1,8.2411285E2,1.2863777E1,1.9279736E1,4.0584835E1,7.820924E1,1.3074963E0,2.7036912E0,7.4385826E1,2.5564205E1],"tree_param":{"num_deleted":"0","num_feature":"9","num_nodes":"63","size_leaf_vector":"1"}},{"base_weights":[-1.519476E-3,7.9496646E-1,-1.0555485E0,1.1017308E0,-1.24654144E-1,-1.2890232E0,-1.7279452E-1,-1.941407E-1,1.1479195E0,3.786899E-1,-7.109981E-1,-6.7917806E-1,-1.3350015E0,4.4742158E-1,-1.078125E0,-7.8185216E-2,4.0525818E-1,8.6013097E-1,1.3023243E0,8.690664E-1,5.28557E-2,-1.2696904E0,-9.389048E-2,1.7264077E-1,-1.1673428E0,-8.579662E-1,-1.370331E0,-7.31579E-1,7.709243E-1,9.0594715E-1,-1.1688354E0,5.2747108E-2,-2.2465428E-2,5.1516797E-2,1.2712429E-2,3.1174148E-2,6.566453E-2,4.6158463E-2,-5.699716E-2,5.8060702E-2,-1.2249761E-2,-6.828358E-2,3.0993408E-2,2.5121972E-2,-3.9414477E-2,-6.727621E-2,4.3762486E-2,-6.982754E-2,-1.3613472E-3,-6.3638926E-2,4.8167665E-2,-4.106058E-2,-6.9035895E-2,4.546414E-2,-9.092367E-2,1.0445274E-2,5.3004898E-2,-4.0956497E-2,8.5597284E-2,-7.025217E-2,-2.3499984E-2],"categories":[],"categories_nodes":[],"categories_segments":[],"categories_sizes":[],"default_left":[0,0,0,0,0,0,0,0,0,0,0,0,0,0,0,0,0,0,0,0,0,0,0,0,0,0,0,0,0,0,0,0,0,0,0,0,0,0,0,0,0,0,0,0,0,0,0,0,0,0,0,0,0,0,0,0,0,0,0,0,0],"id":11,"left_children":[1,3,5,7,9,11,13,15,17,19,21,23,25,27,29,-1,31,33,35,37,39,41,43,45,47,49,51,53,55,57,59,-1,-1,-1,-1,-1,-1,-1,-1,-1,-1,-1,-1,-1,-1,-1,-1,-1,-1,-1,-1,-1,-1,-1,-1,-1,-1,-1,-1,-1,-1],"loss_changes":[2.3415693E3,4.48315E2,2.4720093E2,7.1533325E1,1.1781659E2,2.5709717E1,1.4212407E2,3.4996105E1,5.0004883E1,3.430134E1,6.343017E1,2.8721004E1,1.3683228E1,5.7930717E1,1.9569191E1,0E0,1.7080017E1,4.147116E1,4.741089E0,1.0372757E1,4.3271603E1,1.8376968E1,3.711031E1,2.8758772E1,1.1389072E1,4.9176964E1,3.53833E0,6.0323612E1,1.9038887E1,8.4377E0,1.5646759E1,0E0,0E0,0E0,0E0,0E0,0E0,0E0,0E0,0E0,0E0,0E0,0E0,0E0,0E0,0E0,0E0,0E0,0E0,0E0,0E0,0E0,0E0,0E0,0E0,0E0,0E0,0E0,0E0,0E0,0E0],"parents":[2147483647,0,0,1,1,2,2,3,3,4,4,5,5,6,6,7,7,8,8,9,9,10,10,11,11,12,12,13,13,14,14,16,16,17,17,18,18,19,19,20,20,21,21,22,22,23,23,24,24,25,25,26,26,27,27,28,28,29,29,30,30],"right_children":[2,4,6,8,10,12,14,16,18,20,22,24,26,28,30,-1,32,34,36,38,40,42,44,46,48,50,52,54,56,58,60,-1,-1,-1,-1,-1,-1,-1,-1,-1,-1,-1,-1,-1,-1,-1,-1,-1,-1,-1,-1,-1,-1,-1,-1,-1,-1,-1,-1,-1,-1],"split_conditions":[3.225637E4,-2.5881904E-1,7.22698E3,5.1644575E3,2.805248E4,-8.660254E-1,3.5358562E4,6.234898E-1,-2.4492937E-16,2.332744E4,4.3388373E-1,3.479873E4,-8.660254E-1,-2.5881904E-1,7.29338E3,-7.8185216E-2,-5E-1,1.416998E4,6.67838E3,9.749279E-1,-8.660254E-1,1E0,-5E-1,4.3388373E-1,1E0,1E0,-9.659258E-1,-8.660254E-1,-2.4492937E-16,8.660254E-1,9.749279E-1,5.2747108E-2,-2.2465428E-2,5.1516797E-2,1.2712429E-2,3.1174148E-2,6.566453E-2,4.6158463E-2,-5.699716E-2,5.8060702E-2,-1.2249761E-2,-6.828358E-2,3.0993408E-2,2.5121972E-2,-3.9414477E-2,-6.727621E-2,4.3762486E-2,-6.982754E-2,-1.3613472E-3,-6.3638926E-2,4.8167665E-2,-4.106058E-2,-6.9035895E-2,4.546414E-2,-9.092367E-2,1.0445274E-2,5.3004898E-2,-4.0956497E-2,8.5597284E-2,-7.025217E-2,-2.3499984E-2],"split_indices":[0,4,1,1,0,8,0,6,7,0,5,0,7,3,1,0,8,1,1,5,8,4,7,5,4,4,4,7,7,7,5,0,0,0,0,0,0,0,0,0,0,0,0,0,0,0,0,0,0,0,0,0,0,0,0,0,0,0,0,0,0],"split_type":[0,0,0,0,0,0,0,0,0,0,0,0,0,0,0,0,0,0,0,0,0,0,0,0,0,0,0,0,0,0,0,0,0,0,0,0,0,0,0,0,0,0,0,0,0,0,0,0,0,0,0,0,0,0,0,0,0,0,0,0,0],"sum_hessian":[2.7871792E3,1.5876807E3,1.1994985E3,1.1903943E3,3.9728632E2,9.4824286E2,2.5125568E2,4.0858665E1,1.1495356E3,2.1396408E2,1.8332224E2,6.758481E1,8.80658E2,1.49407E2,1.0184869E2,1.1948595E1,2.8910072E1,4.036882E2,7.458474E2,8.4749664E1,1.2921443E2,9.5659966E1,8.766228E1,2.4857056E1,4.2727757E1,6.2468506E1,8.181895E2,3.1897097E1,1.17509895E2,4.059943E0,9.778874E1,1.6290642E1,1.261943E1,3.146078E2,8.908041E1,1.2776994E1,7.3307043E2,8.3053505E1,1.6961539E0,2.6755104E1,1.0245932E2,9.129961E1,4.3603587E0,4.7310135E1,4.035214E1,7.57478E0,1.7282274E1,3.5388382E1,7.3393745E0,5.112563E1,1.1342876E1,1.667524E1,8.015143E2,1.2774743E1,1.9122353E1,4.0506516E1,7.700338E1,1.2876648E0,2.7722783E0,7.233036E1,2.5458384E1],"tree_param":{"num_deleted":"0","num_feature":"9","num_nodes":"61","size_leaf_vector":"1"}},{"base_weights":[-1.6053672E-3,6.5106887E-1,-1.2191265E0,-3.214405E-1,1.0026698E0,-4.9090135E-1,-1.2970593E0,1.8959154E-1,-7.323572E-1,1.2920043E-1,1.0833272E0,2.2042073E-1,-1.1999213E0,-1.3141185E0,-4.694433E-1,9.521352E-1,-1.5259543E-1,-1.159277E0,-2.4505076E-1,6.25267E-1,-1.2209052E0,7.7513236E-1,1.2510521E0,-1.2647419E0,7.237695E-1,2.99784E-2,-6.9089636E-2,-1.2095659E0,-6.894079E-2,5.1943418E-2,-6.488959E-2,-6.917011E-2,5.7186056E-2,3.0533798E-4,-8.076876E-2,-6.712024E-2,-2.1780763E-2,-7.724295E-4,-7.024153E-2,-1.7174449E-2,5.0116163E-2,7.657073E-2,-7.734897E-2,4.798701E-2,7.540066E-3,6.674089E-2,5.342397E-2,-1.402541E-3,-9.479206E-2,-6.485515E-2,4.7509473E-2,6.276073E-2,-5.7877608E-2,-2.8855024E-2,-6.404622E-2],"categories":[],"categories_nodes":[],"categories_segments":[],"categories_sizes":[],"default_left":[0,0,0,0,0,0,0,0,0,0,0,0,0,0,0,0,0,0,0,0,0,0,0,0,0,0,0,0,0,0,0,0,0,0,0,0,0,0,0,0,0,0,0,0,0,0,0,0,0,0,0,0,0,0,0],"id":12,"left_children":[1,3,5,7,9,11,13,15,17,19,21,23,25,27,29,31,33,35,37,39,41,43,45,47,49,51,-1,53,-1,-1,-1,-1,-1,-1,-1,-1,-1,-1,-1,-1,-1,-1,-1,-1,-1,-1,-1,-1,-1,-1,-1,-1,-1,-1,-1],"loss_changes":[2.1700671E3,6.082249E2,5.3450684E1,9.94308E1,9.186951E1,4.754185E1,1.1529175E1,5.534303E1,5.4284485E1,7.546501E1,6.082544E1,3.6528305E1,1.0577263E1,4.0302734E0,2.500021E1,3.0963123E1,3.41071E1,1.7907883E1,3.293253E1,3.0380505E1,2.9570103E1,4.871634E1,1.0388306E1,9.642517E0,1.7803883E1,1.1705851E1,0E0,1.416095E1,0E0,0E0,0E0,0E0,0E0,0E0,0E0,0E0,0E0,0E0,0E0,0E0,0E0,0E0,0E0,0E0,0E0,0E0,0E0,0E0,0E0,0E0,0E0,0E0,0E0,0E0,0E0],"parents":[2147483647,0,0,1,1,2,2,3,3,4,4,5,5,6,6,7,7,8,8,9,9,10,10,11,11,12,12,13,13,14,14,15,15,16,16,17,17,18,18,19,19,20,20,21,21,22,22,23,23,24,24,25,25,27,27],"right_children":[2,4,6,8,10,12,14,16,18,20,22,24,26,28,30,32,34,36,38,40,42,44,46,48,50,52,-1,54,-1,-1,-1,-1,-1,-1,-1,-1,-1,-1,-1,-1,-1,-1,-1,-1,-1,-1,-1,-1,-1,-1,-1,-1,-1,-1,-1],"split_conditions":[3.434369E4,6.67838E3,3.5358562E4,2.888803E4,-8.660254E-1,-2.5881904E-1,1.262573E4,-8.660254E-1,4.3388373E-1,2.784462E4,-2.4492937E-16,2.74341E3,-8.660254E-1,4.217798E4,1.278951E4,-7.818315E-1,1E0,4.03862E3,5E-1,-2.4492937E-16,6.78407E3,1.416998E4,2.866615E4,-8.660254E-1,3.4618164E4,-7.818315E-1,-6.9089636E-2,-8.660254E-1,-6.894079E-2,5.1943418E-2,-6.488959E-2,-6.917011E-2,5.7186056E-2,3.0533798E-4,-8.076876E-2,-6.712024E-2,-2.1780763E-2,-7.724295E-4,-7.024153E-2,-1.7174449E-2,5.0116163E-2,7.657073E-2,-7.734897E-2,4.798701E-2,7.540066E-3,6.674089E-2,5.342397E-2,-1.402541E-3,-9.479206E-2,-6.485515E-2,4.7509473E-2,6.276073E-2,-5.7877608E-2,-2.8855024E-2,-6.404622E-2],"split_indices":[0,1,0,0,3,4,1,7,5,0,7,2,7,0,1,5,6,1,7,7,1,1,0,8,0,5,0,4,0,0,0,0,0,0,0,0,0,0,0,0,0,0,0,0,0,0,0,0,0,0,0,0,0,0,0],"split_type":[0,0,0,0,0,0,0,0,0,0,0,0,0,0,0,0,0,0,0,0,0,0,0,0,0,0,0,0,0,0,0,0,0,0,0,0,0,0,0,0,0,0,0,0,0,0,0,0,0,0,0,0,0,0,0],"sum_hessian":[2.7288662E3,1.7768297E3,9.520365E2,4.7183777E2,1.304992E3,9.274076E1,8.592957E2,2.1054028E2,2.612975E2,1.1053785E2,1.1944541E3,4.6639225E1,4.610154E1,8.413652E2,1.7930552E1,6.466209E1,1.4587819E2,1.3854337E2,1.2275412E2,8.122894E1,2.9308912E1,4.2293378E2,7.715204E2,1.1422817E1,3.5216408E1,6.0466223E0,4.005492E1,3.291477E2,5.1221747E2,6.266305E0,1.1664246E1,4.430543E0,6.0231544E1,1.3249875E2,1.33794365E1,1.0988193E2,2.8661436E1,1.0331427E2,1.9439856E1,2.2782854E1,5.8446087E1,2.7129526E0,2.6595959E1,3.260015E2,9.693228E1,5.2454456E2,2.469758E2,4.2125087E0,7.210309E0,3.071702E0,3.2144703E1,2.9480116E0,3.0986104E0,3.4292583E1,2.9485513E2],"tree_param":{"num_deleted":"0","num_feature":"9","num_nodes":"55","size_leaf_vector":"1"}},{"base_weights":[-1.7855932E-3,6.689872E-1,-1.1235036E0,-2.1841368E-1,9.957312E-1,-3.7804964E-1,-1.2703694E0,5.5983E-1,-4.5736653E-1,6.439259E-1,1.1857169E0,3.4929788E-1,-1.1605806E0,-1.2873125E0,-4.558699E-1,-9.882225E-1,8.458012E-1,3.7111232E-1,-6.6368616E-1,-7.414368E-1,7.651149E-1,-1.31961E-1,1.2050431E0,4.9712637E-1,-6.61079E-2,-6.795357E-2,-6.055683E-1,-1.1811265E0,-6.7669444E-2,4.9968466E-2,-6.357005E-2,-7.3580734E-2,8.124847E-3,-6.860091E-2,5.1674314E-2,-2.1140516E-2,5.0878413E-2,-4.858915E-2,9.043338E-3,7.1129412E-3,-8.9751445E-2,4.7571104E-2,8.806075E-3,-6.396373E-2,3.9001998E-2,6.4188175E-2,5.031092E-2,-2.8373266E-3,4.213541E-2,-7.3270313E-3,-6.516405E-2,-2.7705798E-2,-6.266493E-2],"categories":[],"categories_nodes":[],"categories_segments":[],"categories_sizes":[],"default_left":[0,0,0,0,0,0,0,0,0,0,0,0,0,0,0,0,0,0,0,0,0,0,0,0,0,0,0,0,0,0,0,0,0,0,0,0,0,0,0,0,0,0,0,0,0,0,0,0,0,0,0,0,0],"id":13,"left_children":[1,3,5,7,9,11,13,15,17,19,21,23,25,27,29,31,33,35,37,39,41,43,45,47,-1,-1,49,51,-1,-1,-1,-1,-1,-1,-1,-1,-1,-1,-1,-1,-1,-1,-1,-1,-1,-1,-1,-1,-1,-1,-1,-1,-1],"loss_changes":[2.0112845E3,4.8524792E2,1.09035034E2,8.412416E1,8.096582E1,9.492369E1,1.0939453E1,4.7936142E1,5.9319977E1,7.292447E1,2.0348877E1,2.2113165E1,8.015305E0,4.138672E0,2.330789E1,9.723543E0,3.902337E1,3.612442E1,7.226564E1,3.3006405E1,4.337494E1,1.3932273E1,1.0939209E1,1.5457268E1,0E0,0E0,7.1552505E0,1.3854248E1,0E0,0E0,0E0,0E0,0E0,0E0,0E0,0E0,0E0,0E0,0E0,0E0,0E0,0E0,0E0,0E0,0E0,0E0,0E0,0E0,0E0,0E0,0E0,0E0,0E0],"parents":[2147483647,0,0,1,1,2,2,3,3,4,4,5,5,6,6,7,7,8,8,9,9,10,10,11,11,12,12,13,13,14,14,15,15,16,16,17,17,18,18,19,19,20,20,21,21,22,22,23,23,26,26,27,27],"right_children":[2,4,6,8,10,12,14,16,18,20,22,24,26,28,30,32,34,36,38,40,42,44,46,48,-1,-1,50,52,-1,-1,-1,-1,-1,-1,-1,-1,-1,-1,-1,-1,-1,-1,-1,-1,-1,-1,-1,-1,-1,-1,-1,-1,-1],"split_conditions":[3.352206E4,7.06575E3,3.5358562E4,-8.660254E-1,-2.4492937E-16,-2.5881904E-1,1.262573E4,5.96207E3,-8.660254E-1,-8.660254E-1,-9.659258E-1,7.925E3,9.659258E-1,4.217798E4,1.278951E4,7.818315E-1,-7.818315E-1,4.3388373E-1,4.03862E3,9.8867E3,1.416998E4,6.67706E3,2.866615E4,2.74341E3,-6.61079E-2,-6.795357E-2,6.234898E-1,-8.660254E-1,-6.7669444E-2,4.9968466E-2,-6.357005E-2,-7.3580734E-2,8.124847E-3,-6.860091E-2,5.1674314E-2,-2.1140516E-2,5.0878413E-2,-4.858915E-2,9.043338E-3,7.1129412E-3,-8.9751445E-2,4.7571104E-2,8.806075E-3,-6.396373E-2,3.9001998E-2,6.4188175E-2,5.031092E-2,-2.8373266E-3,4.213541E-2,-7.3270313E-3,-6.516405E-2,-2.7705798E-2,-6.266493E-2],"split_indices":[0,1,0,7,7,4,1,2,8,3,3,2,4,0,1,5,5,5,1,1,1,2,0,2,0,0,6,4,0,0,0,0,0,0,0,0,0,0,0,0,0,0,0,0,0,0,0,0,0,0,0,0,0],"split_type":[0,0,0,0,0,0,0,0,0,0,0,0,0,0,0,0,0,0,0,0,0,0,0,0,0,0,0,0,0,0,0,0,0,0,0,0,0,0,0,0,0,0,0,0,0,0,0,0,0,0,0,0,0],"sum_hessian":[2.6710962E3,1.6717905E3,9.9930554E2,4.4999225E2,1.2217983E3,1.6506282E2,8.342427E2,1.05393654E2,3.445986E2,4.299779E2,7.9182043E2,8.5834724E1,7.92281E1,8.1667395E2,1.7568775E1,1.6050665E1,8.934299E1,6.8547325E1,2.7605127E2,3.4176285E1,3.958016E2,1.1361422E1,7.80459E2,7.950559E1,6.3291297E0,5.7290424E1,2.1937675E1,3.204996E2,4.9617432E2,6.2287426E0,1.1340032E1,1.110629E1,4.9443755E0,6.47848E0,8.286451E1,3.0919973E1,3.762735E1,2.0215393E2,7.389735E1,1.9057158E1,1.5119128E1,3.0022177E2,9.5579834E1,4.853243E0,6.5081787E0,5.551878E2,2.2527118E2,3.0868172E1,4.863742E1,1.3962033E1,7.9756427E0,3.3978886E1,2.8652072E2],"tree_param":{"num_deleted":"0","num_feature":"9","num_nodes":"53","size_leaf_vector":"1"}},{"base_weights":[-1.9453291E-3,7.2524077E-1,-9.852783E-1,1.0157324E0,-1.1375766E-1,-1.2090627E0,-1.6840886E-1,1.0687569E0,-1.1590521E-1,3.390796E-1,-6.489623E-1,-6.0306406E-1,-1.2560112E0,3.8089076E-1,-9.962768E-1,-7.656513E-1,1.0874895E0,2.6055387E-1,-1.1010533E-1,1.0419039E0,1.3400812E-1,-1.1973219E0,-7.1882606E-2,-6.691313E-2,-5.7703804E-2,-7.702005E-1,-1.2931979E0,-7.345423E-1,6.877679E-1,9.411462E-1,-1.0905862E0,4.908083E-2,-6.529565E-2,4.2226754E-2,6.0430985E-2,-7.7208444E-2,3.8584817E-2,6.6154554E-2,4.06567E-2,1.54746575E-2,-4.7581922E-2,-1.1755586E-2,-6.9894075E-2,2.4257526E-2,-3.6609594E-2,4.067945E-2,-4.001039E-2,-5.965228E-2,4.8625737E-2,-3.615575E-2,-6.522137E-2,4.0999945E-2,-8.852246E-2,7.6747495E-3,4.8595827E-2,-3.8210243E-2,8.444517E-2,-6.675782E-2,-2.0078296E-2],"categories":[],"categories_nodes":[],"categories_segments":[],"categories_sizes":[],"default_left":[0,0,0,0,0,0,0,0,0,0,0,0,0,0,0,0,0,0,0,0,0,0,0,0,0,0,0,0,0,0,0,0,0,0,0,0,0,0,0,0,0,0,0,0,0,0,0,0,0,0,0,0,0,0,0,0,0,0,0],"id":14,"left_children":[1,3,5,7,9,11,13,15,17,19,21,23,25,27,29,31,33,35,-1,37,39,41,43,-1,45,47,49,51,53,55,57,-1,-1,-1,-1,-1,-1,-1,-1,-1,-1,-1,-1,-1,-1,-1,-1,-1,-1,-1,-1,-1,-1,-1,-1,-1,-1,-1,-1],"loss_changes":[1.8704385E3,3.6660815E2,2.0307751E2,6.715454E1,9.416911E1,2.4072388E1,1.0965261E2,3.7504517E1,4.055083E1,3.0219084E1,5.6243515E1,2.5854128E1,1.3619995E1,5.0198174E1,1.8589294E1,1.2019263E1,3.0080322E1,4.1794327E1,0E0,1.975174E0,3.1578106E1,1.7273178E1,3.2647728E1,0E0,2.5348902E1,4.5373314E1,3.8585205E0,5.267105E1,1.7213234E1,7.6647353E0,1.4987724E1,0E0,0E0,0E0,0E0,0E0,0E0,0E0,0E0,0E0,0E0,0E0,0E0,0E0,0E0,0E0,0E0,0E0,0E0,0E0,0E0,0E0,0E0,0E0,0E0,0E0,0E0,0E0,0E0],"parents":[2147483647,0,0,1,1,2,2,3,3,4,4,5,5,6,6,7,7,8,8,9,9,10,10,11,11,12,12,13,13,14,14,15,15,16,16,17,17,19,19,20,20,21,21,22,22,24,24,25,25,26,26,27,27,28,28,29,29,30,30],"right_children":[2,4,6,8,10,12,14,16,18,20,22,24,26,28,30,32,34,36,-1,38,40,42,44,-1,46,48,50,52,54,56,58,-1,-1,-1,-1,-1,-1,-1,-1,-1,-1,-1,-1,-1,-1,-1,-1,-1,-1,-1,-1,-1,-1,-1,-1,-1,-1,-1,-1],"split_conditions":[3.225637E4,-2.5881904E-1,7.22698E3,5E-1,2.805248E4,-8.660254E-1,3.5358562E4,2.51788E3,1.155715E4,2.076166E4,4.3388373E-1,4.3388373E-1,-8.660254E-1,-2.5881904E-1,7.29338E3,2.076166E4,-2.4492937E-16,6.21354E3,-1.1010533E-1,1.783961E4,1.1668728E4,-8.660254E-1,-5E-1,-6.691313E-2,3.479873E4,1E0,-9.659258E-1,-8.660254E-1,-2.4492937E-16,8.660254E-1,9.749279E-1,4.908083E-2,-6.529565E-2,4.2226754E-2,6.0430985E-2,-7.7208444E-2,3.8584817E-2,6.6154554E-2,4.06567E-2,1.54746575E-2,-4.7581922E-2,-1.1755586E-2,-6.9894075E-2,2.4257526E-2,-3.6609594E-2,4.067945E-2,-4.001039E-2,-5.965228E-2,4.8625737E-2,-3.615575E-2,-6.522137E-2,4.0999945E-2,-8.852246E-2,7.6747495E-3,4.8595827E-2,-3.8210243E-2,8.444517E-2,-6.675782E-2,-2.0078296E-2],"split_indices":[0,4,1,8,0,8,0,1,1,0,5,5,7,3,1,0,7,1,0,0,2,7,7,0,0,4,4,7,7,7,5,0,0,0,0,0,0,0,0,0,0,0,0,0,0,0,0,0,0,0,0,0,0,0,0,0,0,0,0],"split_type":[0,0,0,0,0,0,0,0,0,0,0,0,0,0,0,0,0,0,0,0,0,0,0,0,0,0,0,0,0,0,0,0,0,0,0,0,0,0,0,0,0,0,0,0,0,0,0,0,0,0,0,0,0,0,0,0,0,0,0],"sum_hessian":[2.613757E3,1.5027319E3,1.1110251E3,1.1160903E3,3.8664163E2,8.71731E2,2.3929407E2,1.066188E3,4.990224E1,2.0963536E2,1.7700626E2,6.367509E1,8.080559E2,1.4417336E2,9.512072E1,1.03745365E1,1.0558135E3,4.3015175E1,6.887066E0,4.642978E1,1.6320558E2,9.021053E1,8.679573E1,2.649856E1,3.717653E1,5.8998833E1,7.490571E2,3.0806108E1,1.1336724E2,3.9985285E0,9.112219E1,2.2572865E0,8.1172495E0,3.5391922E2,7.018943E2,9.04796E0,3.3967216E1,1.8682777E1,2.7747002E1,1.4111116E2,2.2094427E1,1.5934591E1,7.427595E1,4.722351E1,3.957222E1,1.7060783E1,2.0115747E1,4.7732605E1,1.126623E1,1.5733276E1,7.3332385E2,1.2402553E1,1.8403557E1,3.9894825E1,7.347242E1,1.2121279E0,2.7864006E0,6.655905E1,2.4563133E1],"tree_param":{"num_deleted":"0","num_feature":"9","num_nodes":"59","size_leaf_vector":"1"}},{"base_weights":[-2.0957708E-3,5.9128886E-1,-1.1457714E0,-2.6699787E-1,9.2844796E-1,-5.1930004E-1,-1.2318227E0,4.5862797E-1,-4.8092997E-1,5.89502E-1,1.1226766E0,2.4898682E-2,-1.0090021E0,-8.837762E-1,-1.281278E0,-9.9606717E-1,7.426122E-1,3.4718344E-1,-6.867368E-1,-7.390247E-1,7.0711607E-1,-2.0295161E-1,1.1439013E0,-1.236995E0,5.0506586E-1,-6.585824E-2,3.747609E-1,-3.5633236E-1,-6.515322E-2,-1.0340711E0,-1.2945628E0,-7.16873E-2,-8.777497E-5,-6.732696E-2,4.649839E-2,-2.3176808E-2,4.9348388E-2,5.096792E-2,-4.1049253E-2,2.3487823E-3,-8.615625E-2,4.457894E-2,5.3335377E-3,-6.2253803E-2,3.6997583E-2,6.1750647E-2,4.6602234E-2,-5.3467765E-3,-8.540989E-2,3.761784E-2,-5.831316E-2,7.17153E-2,-5.589188E-2,-6.420671E-2,5.129007E-3,-6.452047E-2,9.65656E-3,-6.556033E-2,-5.2791346E-2],"categories":[],"categories_nodes":[],"categories_segments":[],"categories_sizes":[],"default_left":[0,0,0,0,0,0,0,0,0,0,0,0,0,0,0,0,0,0,0,0,0,0,0,0,0,0,0,0,0,0,0,0,0,0,0,0,0,0,0,0,0,0,0,0,0,0,0,0,0,0,0,0,0,0,0,0,0,0,0],"id":15,"left_children":[1,3,5,7,9,11,13,15,17,19,21,23,25,27,29,31,33,35,37,39,41,43,45,47,49,-1,51,53,-1,55,57,-1,-1,-1,-1,-1,-1,-1,-1,-1,-1,-1,-1,-1,-1,-1,-1,-1,-1,-1,-1,-1,-1,-1,-1,-1,-1,-1,-1],"loss_changes":[1.7350872E3,4.873703E2,4.6443115E1,7.40406E1,7.891687E1,2.8595245E1,1.2072754E1,4.5681694E1,6.291443E1,6.9657684E1,2.1822144E1,3.1983501E1,2.456651E1,2.1356941E1,8.5998535E-1,7.9161987E0,3.7103153E1,3.8770973E1,6.837686E1,2.829344E1,4.498204E1,1.3638041E1,1.3430176E1,7.5676575E0,1.6665264E1,0E0,1.9095512E1,1.9324133E1,0E0,1.2553474E1,1.1243896E0,0E0,0E0,0E0,0E0,0E0,0E0,0E0,0E0,0E0,0E0,0E0,0E0,0E0,0E0,0E0,0E0,0E0,0E0,0E0,0E0,0E0,0E0,0E0,0E0,0E0,0E0,0E0,0E0],"parents":[2147483647,0,0,1,1,2,2,3,3,4,4,5,5,6,6,7,7,8,8,9,9,10,10,11,11,12,12,13,13,14,14,15,15,16,16,17,17,18,18,19,19,20,20,21,21,22,22,23,23,24,24,26,26,27,27,29,29,30,30],"right_children":[2,4,6,8,10,12,14,16,18,20,22,24,26,28,30,32,34,36,38,40,42,44,46,48,50,-1,52,54,-1,56,58,-1,-1,-1,-1,-1,-1,-1,-1,-1,-1,-1,-1,-1,-1,-1,-1,-1,-1,-1,-1,-1,-1,-1,-1,-1,-1,-1,-1],"split_conditions":[3.434369E4,7.06575E3,3.56495E4,-8.660254E-1,-2.4492937E-16,-2.5881904E-1,-8.660254E-1,5.96207E3,-8.660254E-1,-8.660254E-1,-9.659258E-1,2.74341E3,1E0,4.217798E4,-8.660254E-1,7.818315E-1,-7.818315E-1,4.3388373E-1,2.076166E4,9.8867E3,1.416998E4,6.67706E3,2.866615E4,-8.660254E-1,7.925E3,-6.585824E-2,-8.660254E-1,4.3388373E-1,-6.515322E-2,1E0,1.279938E4,-7.16873E-2,-8.777497E-5,-6.732696E-2,4.649839E-2,-2.3176808E-2,4.9348388E-2,5.096792E-2,-4.1049253E-2,2.3487823E-3,-8.615625E-2,4.457894E-2,5.3335377E-3,-6.2253803E-2,3.6997583E-2,6.1750647E-2,4.6602234E-2,-5.3467765E-3,-8.540989E-2,3.761784E-2,-5.831316E-2,7.17153E-2,-5.589188E-2,-6.420671E-2,5.129007E-3,-6.452047E-2,9.65656E-3,-6.556033E-2,-5.2791346E-2],"split_indices":[0,1,0,7,7,4,4,2,8,3,3,2,4,0,8,5,5,5,0,1,1,2,0,8,2,0,7,5,0,4,2,0,0,0,0,0,0,0,0,0,0,0,0,0,0,0,0,0,0,0,0,0,0,0,0,0,0,0,0],"split_type":[0,0,0,0,0,0,0,0,0,0,0,0,0,0,0,0,0,0,0,0,0,0,0,0,0,0,0,0,0,0,0,0,0,0,0,0,0,0,0,0,0,0,0,0,0,0,0,0,0,0,0,0,0,0,0,0,0,0,0],"sum_hessian":[2.5547156E3,1.6823357E3,8.7238E2,4.7453842E2,1.2077972E3,1.0620688E2,7.661731E2,1.0778931E2,3.667491E2,4.414549E2,7.6634235E2,5.0753937E1,5.5452946E1,9.7671326E1,6.685018E2,1.7196028E1,9.059328E1,7.286647E1,2.9388266E2,3.5473667E1,4.0598123E2,1.1941636E1,7.5440076E2,1.3554949E1,3.7198986E1,4.5392265E1,1.0060679E1,4.4075886E1,5.3595444E1,3.8113415E1,6.3038837E2,1.1633301E1,5.5627265E0,6.946597E0,8.364668E1,3.226125E1,4.0605217E1,2.0957012E1,2.7292563E2,2.025126E1,1.5222405E1,3.1019992E2,9.57813E1,5.520142E0,6.421494E0,5.2415283E2,2.302479E2,4.349861E0,9.205088E0,3.2883385E1,4.315602E0,5.906739E0,4.1539397E0,1.3991167E1,3.0084717E1,3.1485264E1,6.628152E0,5.851044E2,4.528402E1],"tree_param":{"num_deleted":"0","num_feature":"9","num_nodes":"59","size_leaf_vector":"1"}},{"base_weights":[-2.296757E-3,6.840679E-1,-9.4549453E-1,9.65647E-1,-1.0875006E-1,-1.1648816E0,-1.6613796E-1,1.0184126E0,-1.3010797E-1,3.1494245E-1,-6.136102E-1,-5.739228E-1,-1.2117089E0,2.2772984E-1,-1.178338E0,7.611839E-1,1.1534388E0,2.3894967E-1,-1.0496531E-1,7.5894713E-1,3.0214818E-2,-1.1554742E0,-6.232417E-2,-6.4873874E-2,-4.909706E-2,-6.543109E-2,-1.0168887E0,6.241676E-1,-5.68508E-1,2.878802E-1,-1.2574208E0,4.6209183E-2,5.4032286E-3,-2.143435E-2,5.848792E-2,-7.410774E-2,3.6345668E-2,4.0620714E-2,-5.6319844E-2,1.0447435E-2,-7.61356E-2,-1.0949423E-2,-6.786114E-2,2.3546405E-2,-3.5066247E-2,2.1622702E-2,-6.041348E-2,2.1067275E-2,-5.680716E-2,3.785304E-2,-6.0319316E-2,-5.3379454E-2,3.3388294E-2,4.5889687E-2,-4.021162E-2,-6.875079E-2,-2.900569E-2],"categories":[],"categories_nodes":[],"categories_segments":[],"categories_sizes":[],"default_left":[0,0,0,0,0,0,0,0,0,0,0,0,0,0,0,0,0,0,0,0,0,0,0,0,0,0,0,0,0,0,0,0,0,0,0,0,0,0,0,0,0,0,0,0,0,0,0,0,0,0,0,0,0,0,0,0,0],"id":16,"left_children":[1,3,5,7,9,11,13,15,17,19,21,23,25,27,29,31,33,35,-1,37,39,41,43,-1,45,-1,47,49,51,53,55,-1,-1,-1,-1,-1,-1,-1,-1,-1,-1,-1,-1,-1,-1,-1,-1,-1,-1,-1,-1,-1,-1,-1,-1,-1,-1],"loss_changes":[1.6180688E3,3.2306262E2,1.7980536E2,6.1861023E1,8.148705E1,2.2033203E1,9.292606E1,3.450403E1,3.6792572E1,2.6183264E1,5.1831367E1,2.3557312E1,1.3020874E1,5.3432606E1,7.929779E0,3.754451E1,1.7699585E1,3.7150276E1,0E0,9.075359E0,3.5663383E1,1.624733E1,3.0038078E1,0E0,2.1227259E1,0E0,4.455783E1,2.8337929E1,3.5521034E1,3.5956614E0,4.14946E0,0E0,0E0,0E0,0E0,0E0,0E0,0E0,0E0,0E0,0E0,0E0,0E0,0E0,0E0,0E0,0E0,0E0,0E0,0E0,0E0,0E0,0E0,0E0,0E0,0E0,0E0],"parents":[2147483647,0,0,1,1,2,2,3,3,4,4,5,5,6,6,7,7,8,8,9,9,10,10,11,11,12,12,13,13,14,14,15,15,16,16,17,17,19,19,20,20,21,21,22,22,24,24,26,26,27,27,28,28,29,29,30,30],"right_children":[2,4,6,8,10,12,14,16,18,20,22,24,26,28,30,32,34,36,-1,38,40,42,44,-1,46,-1,48,50,52,54,56,-1,-1,-1,-1,-1,-1,-1,-1,-1,-1,-1,-1,-1,-1,-1,-1,-1,-1,-1,-1,-1,-1,-1,-1,-1,-1],"split_conditions":[3.225637E4,-2.5881904E-1,7.22698E3,5E-1,2.805248E4,-8.660254E-1,6.123234E-17,-2.4492937E-16,1.155715E4,2.332744E4,4.3388373E-1,4.3388373E-1,7.2135E3,-8.660254E-1,7.29338E3,-5E-1,3.56052E3,6.21354E3,-1.0496531E-1,9.749279E-1,1.1668728E4,-8.660254E-1,-5E-1,-6.4873874E-2,3.852239E4,-6.543109E-2,-8.660254E-1,3.7582164E4,3.9569338E3,3.287793E4,1.262573E4,4.6209183E-2,5.4032286E-3,-2.143435E-2,5.848792E-2,-7.410774E-2,3.6345668E-2,4.0620714E-2,-5.6319844E-2,1.0447435E-2,-7.61356E-2,-1.0949423E-2,-6.786114E-2,2.3546405E-2,-3.5066247E-2,2.1622702E-2,-6.041348E-2,2.1067275E-2,-5.680716E-2,3.785304E-2,-6.0319316E-2,-5.3379454E-2,3.3388294E-2,4.5889687E-2,-4.021162E-2,-6.875079E-2,-2.900569E-2],"split_indices":[0,4,1,8,0,8,8,7,1,0,5,5,2,4,1,7,1,1,0,5,2,7,7,0,0,0,7,0,2,0,1,0,0,0,0,0,0,0,0,0,0,0,0,0,0,0,0,0,0,0,0,0,0,0,0,0,0],"split_type":[0,0,0,0,0,0,0,0,0,0,0,0,0,0,0,0,0,0,0,0,0,0,0,0,0,0,0,0,0,0,0,0,0,0,0,0,0,0,0,0,0,0,0,0,0,0,0,0,0,0,0,0,0,0,0,0,0],"sum_hessian":[2.4974214E3,1.4456772E3,1.051744E3,1.0666318E3,3.7904544E2,8.2032874E2,2.3141534E2,1.0176957E3,4.8936104E1,2.0629402E2,1.7275143E2,6.12031E1,7.591256E2,1.6714919E2,6.426617E1,3.52607E2,6.6508875E2,4.195227E1,6.983836E0,7.9951706E1,1.2634231E2,8.6567505E1,8.618393E1,2.5111187E1,3.6091915E1,5.0312823E2,2.5599736E2,1.1173414E2,5.541505E1,3.1537871E0,6.1112377E1,2.8185028E2,7.075671E1,6.5323153E0,6.585564E2,8.816836E0,3.3135433E1,7.830025E1,1.6514565E0,1.1407797E2,1.22643385E1,1.5713474E1,7.085403E1,4.7122654E1,3.906128E1,2.594189E1,1.01500225E1,1.9407345E1,2.3659001E2,1.0471831E2,7.0158305E0,3.957511E1,1.5839938E1,2.1013675E0,1.0524198E0,5.1193893E1,9.918484E0],"tree_param":{"num_deleted":"0","num_feature":"9","num_nodes":"57","size_leaf_vector":"1"}},{"base_weights":[-2.5585692E-3,6.634166E-1,-9.24897E-1,9.400909E-1,-1.0499322E-1,-2.686325E-1,-1.1811512E0,6.2943053E-1,1.1294218E0,3.007784E-1,-5.9241456E-1,4.4118488E-1,-8.100287E-1,-8.442819E-1,-1.2296046E0,7.818431E-1,-1.6227774E-2,-4.105953E-1,1.1457616E0,9.5981294E-1,1.1626662E-1,-1.1287762E0,-5.9525836E-2,6.07065E-1,-1.1074364E0,1.7255703E-2,-9.782462E-1,-3.5807663E-1,-6.31398E-2,-1.2570428E0,-8.6732125E-1,4.3847647E-2,-1.6548147E-2,-1.02752805E-1,7.954369E-3,5.0426383E-2,-6.176419E-2,5.8243122E-2,2.4801366E-2,6.261915E-2,3.639544E-2,4.988787E-2,-4.0188003E-3,-6.1469067E-2,3.0819902E-2,2.2408988E-2,-3.352024E-2,3.7570097E-3,4.2581584E-2,-7.695204E-2,6.444083E-3,-6.8716064E-2,2.8984774E-2,-8.826132E-3,-5.975889E-2,-6.2498398E-2,4.5950525E-3,-6.3728355E-2,-5.0085247E-2,5.7012677E-2,-5.1840227E-2],"categories":[],"categories_nodes":[],"categories_segments":[],"categories_sizes":[],"default_left":[0,0,0,0,0,0,0,0,0,0,0,0,0,0,0,0,0,0,0,0,0,0,0,0,0,0,0,0,0,0,0,0,0,0,0,0,0,0,0,0,0,0,0,0,0,0,0,0,0,0,0,0,0,0,0,0,0,0,0,0,0],"id":17,"left_children":[1,3,5,7,9,11,13,15,17,19,21,23,25,27,29,31,33,35,37,39,41,43,45,47,49,51,53,55,-1,57,59,-1,-1,-1,-1,-1,-1,-1,-1,-1,-1,-1,-1,-1,-1,-1,-1,-1,-1,-1,-1,-1,-1,-1,-1,-1,-1,-1,-1,-1,-1],"loss_changes":[1.4996409E3,3.0150714E2,1.7183405E2,6.060663E1,7.458916E1,1.1132652E2,1.0973633E1,3.908217E1,1.673816E1,2.4934675E1,4.8880947E1,3.2935547E1,2.2863167E1,1.9027306E1,5.2834473E0,3.4287796E1,2.7778625E1,1.0050742E1,7.364319E0,2.135807E0,2.8171082E1,1.57330475E1,2.7271137E1,1.4777897E1,6.8712635E0,2.3277905E1,2.3519424E1,1.8447474E1,0E0,1.38031E0,1.7639198E1,0E0,0E0,0E0,0E0,0E0,0E0,0E0,0E0,0E0,0E0,0E0,0E0,0E0,0E0,0E0,0E0,0E0,0E0,0E0,0E0,0E0,0E0,0E0,0E0,0E0,0E0,0E0,0E0,0E0,0E0],"parents":[2147483647,0,0,1,1,2,2,3,3,4,4,5,5,6,6,7,7,8,8,9,9,10,10,11,11,12,12,13,13,14,14,15,15,16,16,17,17,18,18,19,19,20,20,21,21,22,22,23,23,24,24,25,25,26,26,27,27,29,29,30,30],"right_children":[2,4,6,8,10,12,14,16,18,20,22,24,26,28,30,32,34,36,38,40,42,44,46,48,50,52,54,56,-1,58,60,-1,-1,-1,-1,-1,-1,-1,-1,-1,-1,-1,-1,-1,-1,-1,-1,-1,-1,-1,-1,-1,-1,-1,-1,-1,-1,-1,-1,-1,-1],"split_conditions":[3.225637E4,-2.5881904E-1,3.5358562E4,1.2246469E-16,2.805248E4,-7.0710677E-1,-8.660254E-1,-5E-1,3.56052E3,2.076166E4,4.3388373E-1,6.123234E-17,-8.660254E-1,4.217798E4,1E0,3.098795E4,-2.2252093E-1,2.000526E4,-1.8369701E-16,1.783961E4,-8.660254E-1,1E0,-5E-1,4.3388373E-1,5E-1,4.67956E3,-8.660254E-1,4.3388373E-1,-6.31398E-2,1.279938E4,3.56495E4,4.3847647E-2,-1.6548147E-2,-1.02752805E-1,7.954369E-3,5.0426383E-2,-6.176419E-2,5.8243122E-2,2.4801366E-2,6.261915E-2,3.639544E-2,4.988787E-2,-4.0188003E-3,-6.1469067E-2,3.0819902E-2,2.2408988E-2,-3.352024E-2,3.7570097E-3,4.2581584E-2,-7.695204E-2,6.444083E-3,-6.8716064E-2,2.8984774E-2,-8.826132E-3,-5.975889E-2,-6.2498398E-2,4.5950525E-3,-6.3728355E-2,-5.0085247E-2,5.7012677E-2,-5.1840227E-2],"split_indices":[0,4,0,7,0,4,4,7,1,0,5,8,7,0,4,0,6,0,8,0,8,4,7,5,3,2,8,5,0,2,0,0,0,0,0,0,0,0,0,0,0,0,0,0,0,0,0,0,0,0,0,0,0,0,0,0,0,0,0,0,0],"split_type":[0,0,0,0,0,0,0,0,0,0,0,0,0,0,0,0,0,0,0,0,0,0,0,0,0,0,0,0,0,0,0,0,0,0,0,0,0,0,0,0,0,0,0,0,0,0,0,0,0,0,0,0,0,0,0,0,0,0,0,0,0],"sum_hessian":[2.439401E3,1.4167303E3,1.0226706E3,1.0415027E3,3.7522772E2,2.877623E2,7.3490826E2,3.9602176E2,6.454809E2,2.0497322E2,1.702545E2,1.24593925E2,1.6316837E2,9.4729904E1,6.401784E2,3.202204E2,7.580138E1,6.523426E0,6.3895746E2,4.3915398E1,1.6105782E2,8.429346E1,8.596104E1,1.1308848E2,1.1505445E1,2.7723448E1,1.3544492E2,4.467948E1,5.005042E1,5.928111E2,4.7367264E1,2.952019E2,2.5018497E1,5.1529584E0,7.064842E1,2.315683E0,4.207743E0,6.1993976E2,1.9017754E1,1.747213E1,2.6443268E1,2.863256E1,1.3242526E2,7.997845E1,4.3150105E0,4.709031E1,3.887073E1,3.6030506E1,7.7057976E1,8.34671E0,3.158734E0,7.5643616E0,2.0159086E1,2.9230436E1,1.0621448E2,1.4386486E1,3.0292995E1,5.5100305E2,4.180804E1,3.241618E0,4.412565E1],"tree_param":{"num_deleted":"0","num_feature":"9","num_nodes":"61","size_leaf_vector":"1"}},{"base_weights":[-2.6806358E-3,5.37979E-1,-1.0834711E0,-2.442111E-1,8.5567486E-1,-4.7073242E-1,-1.1714013E0,4.2420277E-1,-4.4456834E-1,5.241443E-1,1.0550284E0,3.5216272E-2,-9.5014167E-1,-8.130565E-1,-1.2240921E0,-9.5017856E-1,6.8805933E-1,3.4012237E-1,-6.43094E-1,-7.040044E-1,6.3501203E-1,-1.9108799E-1,1.0759296E0,-1.1881729E0,5.0325465E-1,-6.317342E-2,3.75604E-1,-3.0774197E-1,-6.2235426E-2,-9.6050805E-1,-1.23865E0,-6.9154054E-2,-1.29685895E-5,-6.591951E-2,4.3336015E-2,-2.2581987E-2,4.7674693E-2,-4.560373E-2,5.7105348E-3,2.735973E-3,-8.341693E-2,4.0849205E-2,3.034529E-3,-6.025179E-2,3.480422E-2,5.8644075E-2,4.273858E-2,-5.1299427E-3,-8.284089E-2,3.6750298E-2,-5.5630397E-2,6.6698514E-2,-5.3013768E-2,-6.1055955E-2,5.588745E-3,-6.1744507E-2,1.3286881E-2,-6.283232E-2,-4.9320478E-2],"categories":[],"categories_nodes":[],"categories_segments":[],"categories_sizes":[],"default_left":[0,0,0,0,0,0,0,0,0,0,0,0,0,0,0,0,0,0,0,0,0,0,0,0,0,0,0,0,0,0,0,0,0,0,0,0,0,0,0,0,0,0,0,0,0,0,0,0,0,0,0,0,0,0,0,0,0,0,0],"id":18,"left_children":[1,3,5,7,9,11,13,15,17,19,21,23,25,27,29,31,33,35,37,39,41,43,45,47,49,-1,51,53,-1,55,57,-1,-1,-1,-1,-1,-1,-1,-1,-1,-1,-1,-1,-1,-1,-1,-1,-1,-1,-1,-1,-1,-1,-1,-1,-1,-1,-1,-1],"loss_changes":[1.3932634E3,3.951484E2,4.2283936E1,6.177095E1,7.4161255E1,2.4639568E1,1.2119568E1,3.9296814E1,5.5408676E1,5.851886E1,1.8566833E1,2.9411146E1,2.2126568E1,1.9687973E1,1.1264648E0,7.2300606E0,3.3397373E1,3.5488354E1,5.7769775E1,2.6275135E1,4.0887543E1,1.206398E1,1.3867249E1,7.0653515E0,1.4710433E1,0E0,1.6186764E1,1.6889149E1,0E0,1.24555855E1,1.3411255E0,0E0,0E0,0E0,0E0,0E0,0E0,0E0,0E0,0E0,0E0,0E0,0E0,0E0,0E0,0E0,0E0,0E0,0E0,0E0,0E0,0E0,0E0,0E0,0E0,0E0,0E0,0E0,0E0],"parents":[2147483647,0,0,1,1,2,2,3,3,4,4,5,5,6,6,7,7,8,8,9,9,10,10,11,11,12,12,13,13,14,14,15,15,16,16,17,17,18,18,19,19,20,20,21,21,22,22,23,23,24,24,26,26,27,27,29,29,30,30],"right_children":[2,4,6,8,10,12,14,16,18,20,22,24,26,28,30,32,34,36,38,40,42,44,46,48,50,-1,52,54,-1,56,58,-1,-1,-1,-1,-1,-1,-1,-1,-1,-1,-1,-1,-1,-1,-1,-1,-1,-1,-1,-1,-1,-1,-1,-1,-1,-1,-1,-1],"split_conditions":[3.434369E4,7.06575E3,3.56495E4,-8.660254E-1,-2.4492937E-16,-2.5881904E-1,-8.660254E-1,5.96207E3,-8.660254E-1,-8.660254E-1,-9.659258E-1,2.74341E3,1E0,4.217798E4,-8.660254E-1,7.818315E-1,-7.818315E-1,4.3388373E-1,4.03862E3,9.8867E3,1.416998E4,6.67706E3,2.866615E4,-8.660254E-1,7.925E3,-6.317342E-2,-8.660254E-1,4.3388373E-1,-6.2235426E-2,1E0,1.279938E4,-6.9154054E-2,-1.29685895E-5,-6.591951E-2,4.3336015E-2,-2.2581987E-2,4.7674693E-2,-4.560373E-2,5.7105348E-3,2.735973E-3,-8.341693E-2,4.0849205E-2,3.034529E-3,-6.025179E-2,3.480422E-2,5.8644075E-2,4.273858E-2,-5.1299427E-3,-8.284089E-2,3.6750298E-2,-5.5630397E-2,6.6698514E-2,-5.3013768E-2,-6.1055955E-2,5.588745E-3,-6.1744507E-2,1.3286881E-2,-6.283232E-2,-4.9320478E-2],"split_indices":[0,1,0,7,7,4,4,2,8,3,3,2,4,0,8,5,5,5,1,1,1,2,0,8,2,0,7,5,0,4,2,0,0,0,0,0,0,0,0,0,0,0,0,0,0,0,0,0,0,0,0,0,0,0,0,0,0,0,0],"split_type":[0,0,0,0,0,0,0,0,0,0,0,0,0,0,0,0,0,0,0,0,0,0,0,0,0,0,0,0,0,0,0,0,0,0,0,0,0,0,0,0,0,0,0,0,0,0,0,0,0,0,0,0,0,0,0,0,0,0,0],"sum_hessian":[2.3823403E3,1.5883026E3,7.940377E2,4.5883905E2,1.1294635E3,1.0044485E2,6.9359283E2,1.0556047E2,3.5327856E2,4.2549033E2,7.0397327E2,4.9320534E1,5.1124313E1,9.101822E1,6.0257465E2,1.6582756E1,8.8977715E1,7.118806E1,2.820905E2,3.4786736E1,3.9070358E2,1.1478702E1,6.9249457E2,1.322183E1,3.6098705E1,4.138933E1,9.734981E0,4.2720406E1,4.829781E1,3.504422E1,5.675304E2,1.1078157E1,5.5045986E0,6.753488E0,8.222423E1,3.1190239E1,3.9997814E1,2.080062E2,7.408432E1,1.9996805E1,1.4789932E1,2.963754E2,9.4328186E1,5.1894264E0,6.2892747E0,4.7844785E2,2.140467E2,4.354333E0,8.867497E0,3.2047497E1,4.0512066E0,5.8808365E0,3.8541443E0,1.284448E1,2.9875927E1,2.8630806E1,6.4134145E0,5.260192E2,4.1511192E1],"tree_param":{"num_deleted":"0","num_feature":"9","num_nodes":"59","size_leaf_vector":"1"}},{"base_weights":[-2.9125558E-3,6.2686676E-1,-8.9086217E-1,8.9436054E-1,-9.684681E-2,-2.6547128E-1,-1.1442612E0,5.854098E-1,1.0895153E0,2.8486335E-1,-5.601994E-1,5.714323E-1,-6.8283933E-1,-8.0257237E-1,-1.1946868E0,7.3451114E-1,-3.329935E-2,-3.625315E-1,1.1054833E0,9.2485225E-1,1.0896625E-1,-1.0927545E0,-5.007001E-2,7.172961E-1,-7.233321E-2,9.873959E-2,-8.5382575E-1,-3.3382532E-1,-6.139319E-2,-1.223185E0,-8.257989E-1,4.1456815E-2,-1.7336018E-2,2.2350406E-2,-3.739692E-2,5.0323498E-2,-5.933046E-2,5.6271482E-2,2.230389E-2,6.1221596E-2,3.453245E-2,1.3542515E-2,-4.5278832E-2,-8.2258545E-3,-6.516692E-2,2.1820696E-2,-3.2106765E-2,1.0119906E-2,5.0265025E-2,-6.8085216E-2,2.4799133E-2,1.3539434E-3,-5.697581E-2,-6.0479153E-2,4.1002324E-3,-6.208348E-2,-4.794841E-2,2.4288308E-3,-6.138744E-2],"categories":[],"categories_nodes":[],"categories_segments":[],"categories_sizes":[],"default_left":[0,0,0,0,0,0,0,0,0,0,0,0,0,0,0,0,0,0,0,0,0,0,0,0,0,0,0,0,0,0,0,0,0,0,0,0,0,0,0,0,0,0,0,0,0,0,0,0,0,0,0,0,0,0,0,0,0,0,0],"id":19,"left_children":[1,3,5,7,9,11,13,15,17,19,21,23,25,27,29,31,33,35,37,39,41,43,45,47,-1,49,51,53,-1,55,57,-1,-1,-1,-1,-1,-1,-1,-1,-1,-1,-1,-1,-1,-1,-1,-1,-1,-1,-1,-1,-1,-1,-1,-1,-1,-1,-1,-1],"loss_changes":[1.3022638E3,2.6383978E2,1.528305E2,5.934546E1,6.534886E1,9.817133E1,1.08845215E1,3.5753235E1,1.4510864E1,2.2724018E1,4.5266247E1,2.861859E1,2.5107162E1,1.7819431E1,5.2651367E0,3.222258E1,2.6478374E1,9.511657E0,7.418335E0,2.2119484E0,2.6552654E1,1.57300415E1,2.512375E1,1.2853489E1,0E0,2.0694311E1,3.872078E1,1.644008E1,0E0,1.5054321E0,1.6186655E1,0E0,0E0,0E0,0E0,0E0,0E0,0E0,0E0,0E0,0E0,0E0,0E0,0E0,0E0,0E0,0E0,0E0,0E0,0E0,0E0,0E0,0E0,0E0,0E0,0E0,0E0,0E0,0E0],"parents":[2147483647,0,0,1,1,2,2,3,3,4,4,5,5,6,6,7,7,8,8,9,9,10,10,11,11,12,12,13,13,14,14,15,15,16,16,17,17,18,18,19,19,20,20,21,21,22,22,23,23,25,25,26,26,27,27,29,29,30,30],"right_children":[2,4,6,8,10,12,14,16,18,20,22,24,26,28,30,32,34,36,38,40,42,44,46,48,-1,50,52,54,-1,56,58,-1,-1,-1,-1,-1,-1,-1,-1,-1,-1,-1,-1,-1,-1,-1,-1,-1,-1,-1,-1,-1,-1,-1,-1,-1,-1,-1,-1],"split_conditions":[3.225637E4,-2.5881904E-1,3.5358562E4,1.2246469E-16,2.805248E4,-8.660254E-1,-8.660254E-1,-5E-1,3.56052E3,2.076166E4,4.3388373E-1,6.123234E-17,-8.660254E-1,4.217798E4,1E0,3.098795E4,-4.3388373E-1,2.000526E4,-1.8369701E-16,1.783961E4,1.1668728E4,-8.660254E-1,-5E-1,-2.4492937E-16,-7.233321E-2,3.9282E3,-8.660254E-1,4.3388373E-1,-6.139319E-2,1.279938E4,3.852239E4,4.1456815E-2,-1.7336018E-2,2.2350406E-2,-3.739692E-2,5.0323498E-2,-5.933046E-2,5.6271482E-2,2.230389E-2,6.1221596E-2,3.453245E-2,1.3542515E-2,-4.5278832E-2,-8.2258545E-3,-6.516692E-2,2.1820696E-2,-3.2106765E-2,1.0119906E-2,5.0265025E-2,-6.8085216E-2,2.4799133E-2,1.3539434E-3,-5.697581E-2,-6.0479153E-2,4.1002324E-3,-6.208348E-2,-4.794841E-2,2.4288308E-3,-6.138744E-2],"split_indices":[0,4,0,7,0,4,4,7,1,0,5,8,7,0,4,0,5,0,8,0,2,7,7,7,0,2,8,5,0,2,0,0,0,0,0,0,0,0,0,0,0,0,0,0,0,0,0,0,0,0,0,0,0,0,0,0,0,0,0],"split_type":[0,0,0,0,0,0,0,0,0,0,0,0,0,0,0,0,0,0,0,0,0,0,0,0,0,0,0,0,0,0,0,0,0,0,0,0,0,0,0,0,0,0,0,0,0,0,0,0,0,0,0,0,0,0,0,0,0,0,0],"sum_hessian":[2.326748E3,1.3614395E3,9.6530853E2,9.938602E2,3.6757925E2,2.7893713E2,6.863714E2,3.8630234E2,6.075579E2,2.0175696E2,1.658223E2,9.269554E1,1.8624161E2,9.044195E1,5.9592944E2,3.1113538E2,7.516696E1,6.3724856E0,6.011854E2,4.2578873E1,1.5917809E2,8.0569145E1,8.525314E1,8.704843E1,5.6471124E0,3.35064E1,1.527352E2,4.3872055E1,4.6569893E1,5.51043E2,4.488641E1,2.8631165E2,2.4823719E1,4.517765E1,2.9989311E1,2.311376E0,4.0611095E0,5.828482E2,1.8337214E1,1.6826845E1,2.5752028E1,1.3790631E2,2.1271784E1,1.5227731E1,6.5341415E1,4.6943687E1,3.8309456E1,3.1835413E1,5.5213017E1,6.6457505E0,2.686065E1,3.7625397E1,1.151098E2,1.3510165E1,3.036189E1,5.1155518E2,3.9487873E1,1.44128275E1,3.0473581E1],"tree_param":{"num_deleted":"0","num_feature":"9","num_nodes":"59","size_leaf_vector":"1"}},{"base_weights":[-3.0693468E-3,6.081999E-1,-8.7267524E-1,8.711328E-1,-9.312111E-2,-2.5672367E-1,-1.1271138E0,9.266108E-1,-2.1938828E-1,4.1241795E-1,-4.2144832E-1,5.5155545E-1,-6.5971494E-1,-7.8252995E-1,-1.1786412E0,6.7146134E-1,1.0705471E0,1.4772786E-1,-1.03493385E-1,9.5176375E-1,2.0176633E-1,-9.1158605E-1,9.047265E-2,6.9312006E-1,-7.0293516E-2,9.294955E-2,-8.26255E-1,-3.2165915E-1,-6.0607065E-2,-1.2079005E0,-8.052444E-1,4.1247886E-2,4.3396093E-3,1.8718017E-2,5.5252124E-2,-7.272912E-2,3.1146316E-2,5.3085547E-2,-5.071624E-2,-1.749693E-2,3.180543E-2,-6.537311E-2,-1.2139856E-2,4.6475407E-2,-1.0391246E-2,9.657796E-3,4.891861E-2,-6.653329E-2,2.3641156E-2,1.2880374E-3,-5.5451352E-2,-5.9528556E-2,3.8980355E-3,-6.1346967E-2,-4.6934456E-2,2.312977E-3,-6.0549833E-2],"categories":[],"categories_nodes":[],"categories_segments":[],"categories_sizes":[],"default_left":[0,0,0,0,0,0,0,0,0,0,0,0,0,0,0,0,0,0,0,0,0,0,0,0,0,0,0,0,0,0,0,0,0,0,0,0,0,0,0,0,0,0,0,0,0,0,0,0,0,0,0,0,0,0,0,0,0],"id":20,"left_children":[1,3,5,7,9,11,13,15,17,19,21,23,25,27,29,31,33,35,-1,37,39,41,43,45,-1,47,49,51,-1,53,55,-1,-1,-1,-1,-1,-1,-1,-1,-1,-1,-1,-1,-1,-1,-1,-1,-1,-1,-1,-1,-1,-1,-1,-1,-1,-1],"loss_changes":[1.2085408E3,2.4627255E2,1.4678925E2,5.895703E1,6.0750126E1,9.01462E1,1.0864319E1,3.3226807E1,3.2792828E1,1.6191536E1,5.5722874E1,2.6536741E1,2.3189362E1,1.729686E1,5.3149414E0,3.0087097E1,1.3737549E1,3.2000866E1,0E0,9.774025E0,2.53765E1,2.9699959E1,2.7568007E1,1.2175362E1,0E0,1.9181454E1,3.6427788E1,1.5530132E1,0E0,1.5733643E0,1.554108E1,0E0,0E0,0E0,0E0,0E0,0E0,0E0,0E0,0E0,0E0,0E0,0E0,0E0,0E0,0E0,0E0,0E0,0E0,0E0,0E0,0E0,0E0,0E0,0E0,0E0,0E0],"parents":[2147483647,0,0,1,1,2,2,3,3,4,4,5,5,6,6,7,7,8,8,9,9,10,10,11,11,12,12,13,13,14,14,15,15,16,16,17,17,19,19,20,20,21,21,22,22,23,23,25,25,26,26,27,27,29,29,30,30],"right_children":[2,4,6,8,10,12,14,16,18,20,22,24,26,28,30,32,34,36,-1,38,40,42,44,46,-1,48,50,52,-1,54,56,-1,-1,-1,-1,-1,-1,-1,-1,-1,-1,-1,-1,-1,-1,-1,-1,-1,-1,-1,-1,-1,-1,-1,-1,-1,-1],"split_conditions":[3.225637E4,-2.5881904E-1,3.5358562E4,5E-1,2.640234E4,-8.660254E-1,-8.660254E-1,-2.4492937E-16,1.155715E4,-8.660254E-1,4.3388373E-1,6.123234E-17,-8.660254E-1,4.217798E4,1E0,-5E-1,6.67838E3,6.21354E3,-1.03493385E-1,2.5859229E4,7.1754E3,-1.8369701E-16,-8.660254E-1,-2.4492937E-16,-7.0293516E-2,3.9282E3,-8.660254E-1,4.3388373E-1,-6.0607065E-2,1.279938E4,3.852239E4,4.1247886E-2,4.3396093E-3,1.8718017E-2,5.5252124E-2,-7.272912E-2,3.1146316E-2,5.3085547E-2,-5.071624E-2,-1.749693E-2,3.180543E-2,-6.537311E-2,-1.2139856E-2,4.6475407E-2,-1.0391246E-2,9.657796E-3,4.891861E-2,-6.653329E-2,2.3641156E-2,1.2880374E-3,-5.5451352E-2,-5.9528556E-2,3.8980355E-3,-6.1346967E-2,-4.6934456E-2,2.312977E-3,-6.0549833E-2],"split_indices":[0,4,0,8,0,4,4,7,1,7,5,8,7,0,4,7,1,1,0,0,1,8,8,7,0,2,8,5,0,2,0,0,0,0,0,0,0,0,0,0,0,0,0,0,0,0,0,0,0,0,0,0,0,0,0,0,0],"split_type":[0,0,0,0,0,0,0,0,0,0,0,0,0,0,0,0,0,0,0,0,0,0,0,0,0,0,0,0,0,0,0,0,0,0,0,0,0,0,0,0,0,0,0,0,0,0,0,0,0,0,0,0,0,0,0,0,0],"sum_hessian":[2.2715608E3,1.3340923E3,9.3746857E2,9.7013574E2,3.639566E2,2.7463467E2,6.6283386E2,9.233143E2,4.682143E1,1.4320374E2,2.2075287E2,9.124867E1,1.83386E2,8.8329185E1,5.745047E2,3.350503E2,5.88264E2,3.9838123E1,6.983308E0,3.923345E1,1.0397029E2,1.12377014E2,1.0837586E2,8.569683E1,5.5518484E0,3.3305645E1,1.5008035E2,4.3457905E1,4.4871277E1,5.3068536E2,4.3819317E1,2.650534E2,6.999689E1,2.8331387E1,5.599326E2,8.640942E0,3.1197182E1,3.759127E1,1.6421834E0,4.5883297E1,5.8086994E1,6.999181E1,4.23852E1,2.7869623E1,8.050623E1,3.1741074E1,5.3955753E1,6.4880595E0,2.6817587E1,3.7624245E1,1.12456116E2,1.3066832E1,3.0391073E1,4.923114E2,3.837397E1,1.4427672E1,2.9391644E1],"tree_param":{"num_deleted":"0","num_feature":"9","num_nodes":"57","size_leaf_vector":"1"}},{"base_weights":[-3.2656214E-3,4.899489E-1,-1.0301238E0,-2.2323595E-1,7.9018885E-1,-4.2762154E-1,-1.1207634E0,7.673373E-2,-6.19272E-1,4.6876642E-1,9.9395114E-1,4.693766E-2,-8.9959425E-1,-7.526942E-1,-1.1771264E0,-7.0302945E-1,2.1957362E-1,-1.0273117E0,-3.6431718E-1,-6.8782645E-1,5.74908E-1,1.1069661E0,7.4203515E-1,-1.1382192E0,5.0138783E-1,-6.108695E-2,3.8468176E-1,-2.7343214E-1,-5.9871703E-2,-8.915497E-1,-1.1933124E0,6.1142005E-2,-5.662876E-2,3.889626E-2,-7.502476E-4,-5.6838572E-2,2.988179E-2,3.451761E-2,-2.4880292E-2,2.1251708E-3,-8.143052E-2,3.77044E-2,1.3355268E-3,3.839935E-2,5.7513665E-2,-4.4509716E-2,4.407054E-2,-8.6242504E-2,-1.2486681E-2,3.5962682E-2,-5.3326458E-2,6.312663E-2,-5.0591137E-2,-5.8199227E-2,4.9152E-3,-5.9248336E-2,1.5052999E-2,-6.0649317E-2,-4.631024E-2],"categories":[],"categories_nodes":[],"categories_segments":[],"categories_sizes":[],"default_left":[0,0,0,0,0,0,0,0,0,0,0,0,0,0,0,0,0,0,0,0,0,0,0,0,0,0,0,0,0,0,0,0,0,0,0,0,0,0,0,0,0,0,0,0,0,0,0,0,0,0,0,0,0,0,0,0,0,0,0],"id":21,"left_children":[1,3,5,7,9,11,13,15,17,19,21,23,25,27,29,31,33,35,37,39,41,43,45,47,49,-1,51,53,-1,55,57,-1,-1,-1,-1,-1,-1,-1,-1,-1,-1,-1,-1,-1,-1,-1,-1,-1,-1,-1,-1,-1,-1,-1,-1,-1,-1,-1,-1],"loss_changes":[1.1237957E3,3.2114243E2,3.88385E1,5.2896824E1,6.8635864E1,2.1491386E1,1.2084045E1,2.844777E1,1.9583275E1,5.0881454E1,1.7537415E1,2.6801151E1,2.0354538E1,1.7960129E1,1.434082E0,3.411631E1,2.8231583E1,1.3703293E1,1.7158873E1,2.413334E1,3.703318E1,5.621582E0,4.6905083E1,6.764303E0,1.3029427E1,0E0,1.4025567E1,1.4214552E1,0E0,1.1883774E1,1.548523E0,0E0,0E0,0E0,0E0,0E0,0E0,0E0,0E0,0E0,0E0,0E0,0E0,0E0,0E0,0E0,0E0,0E0,0E0,0E0,0E0,0E0,0E0,0E0,0E0,0E0,0E0,0E0,0E0],"parents":[2147483647,0,0,1,1,2,2,3,3,4,4,5,5,6,6,7,7,8,8,9,9,10,10,11,11,12,12,13,13,14,14,15,15,16,16,17,17,18,18,19,19,20,20,21,21,22,22,23,23,24,24,26,26,27,27,29,29,30,30],"right_children":[2,4,6,8,10,12,14,16,18,20,22,24,26,28,30,32,34,36,38,40,42,44,46,48,50,-1,52,54,-1,56,58,-1,-1,-1,-1,-1,-1,-1,-1,-1,-1,-1,-1,-1,-1,-1,-1,-1,-1,-1,-1,-1,-1,-1,-1,-1,-1,-1,-1],"split_conditions":[3.434369E4,7.06575E3,3.56495E4,3.004997E4,-2.4492937E-16,-2.5881904E-1,-8.660254E-1,-7.818315E-1,0E0,-8.660254E-1,2.866615E4,2.74341E3,1E0,4.217798E4,-8.660254E-1,1.783961E4,-8.660254E-1,1E0,-8.660254E-1,9.8867E3,1.416998E4,-8.660254E-1,-7.0710677E-1,5E-1,7.925E3,-6.108695E-2,-8.660254E-1,4.3388373E-1,-5.9871703E-2,1E0,1.279938E4,6.1142005E-2,-5.662876E-2,3.889626E-2,-7.502476E-4,-5.6838572E-2,2.988179E-2,3.451761E-2,-2.4880292E-2,2.1251708E-3,-8.143052E-2,3.77044E-2,1.3355268E-3,3.839935E-2,5.7513665E-2,-4.4509716E-2,4.407054E-2,-8.6242504E-2,-1.2486681E-2,3.5962682E-2,-5.3326458E-2,6.312663E-2,-5.0591137E-2,-5.8199227E-2,4.9152E-3,-5.9248336E-2,1.5052999E-2,-6.0649317E-2,-4.631024E-2],"split_indices":[0,1,0,0,7,4,4,5,5,3,0,2,4,0,8,0,7,4,3,1,1,3,3,3,2,0,7,5,0,4,2,0,0,0,0,0,0,0,0,0,0,0,0,0,0,0,0,0,0,0,0,0,0,0,0,0,0,0,0],"split_type":[0,0,0,0,0,0,0,0,0,0,0,0,0,0,0,0,0,0,0,0,0,0,0,0,0,0,0,0,0,0,0,0,0,0,0,0,0,0,0,0,0,0,0,0,0,0,0,0,0,0,0,0,0,0,0,0,0,0,0],"sum_hessian":[2.2169204E3,1.4979545E3,7.189659E2,4.4386395E2,1.0540905E3,9.4764175E1,6.2420166E2,2.5302295E2,1.9084099E2,4.1024893E2,6.4384155E2,4.7701656E1,4.7062523E1,8.479784E1,5.394039E2,3.8566513E1,2.1445645E2,7.222304E1,1.1861794E2,3.402362E1,3.762253E2,4.421081E2,2.0173346E2,1.2804444E1,3.4897213E1,3.7663734E1,9.398787E0,4.1592068E1,4.3205765E1,3.1940779E1,5.0746307E2,6.696392E0,3.187012E1,6.2759045E1,1.516974E2,6.794645E1,4.2765856E0,1.2839987E1,1.0577796E2,1.9691751E1,1.433187E1,2.8326407E2,9.296126E1,5.2206276E1,3.8990182E2,1.5446965E1,1.862865E2,7.1453347E0,5.65911E0,3.1114983E1,3.7822309E0,5.829968E0,3.5688183E0,1.1620976E1,2.997109E1,2.5639193E1,6.3015857E0,4.6935153E2,3.811153E1],"tree_param":{"num_deleted":"0","num_feature":"9","num_nodes":"59","size_leaf_vector":"1"}},{"base_weights":[-3.4138993E-3,5.7404655E-1,-8.411709E-1,8.3021766E-1,-8.8874795E-2,-2.4925493E-1,-1.0956324E0,5.253055E-1,1.0341138E0,6.583755E-1,-2.8742367E-1,5.111691E-1,-6.2822E-1,-7.449196E-1,-1.1495708E0,-8.132466E-1,5.897074E-1,3.5854E-1,1.0700908E0,7.120663E-1,-5.5879563E-2,-6.1236566E-1,1.22490115E-1,6.487418E-1,-6.8531476E-2,4.2940106E-2,-8.05552E-1,-3.000305E-1,-5.9182383E-2,-1.1802645E0,-7.6749015E-1,3.2042477E-2,-6.842541E-2,3.7038833E-2,5.3059785E-3,3.4621667E-2,-7.7113844E-2,5.679771E-2,4.4513743E-2,-2.0660779E-2,3.92878E-2,1.5135285E-2,-4.369537E-2,4.3732982E-2,-4.9476204E-3,8.309209E-3,4.664592E-2,-7.097497E-2,2.9450435E-2,4.210562E-3,-5.3707916E-2,-5.783555E-2,3.4709026E-3,-6.0029633E-2,-4.496907E-2,3.031095E-3,-5.9164494E-2],"categories":[],"categories_nodes":[],"categories_segments":[],"categories_sizes":[],"default_left":[0,0,0,0,0,0,0,0,0,0,0,0,0,0,0,0,0,0,0,0,0,0,0,0,0,0,0,0,0,0,0,0,0,0,0,0,0,0,0,0,0,0,0,0,0,0,0,0,0,0,0,0,0,0,0,0,0],"id":22,"left_children":[1,3,5,7,9,11,13,15,17,19,21,23,25,27,29,31,33,35,37,39,-1,41,43,45,-1,47,49,51,-1,53,55,-1,-1,-1,-1,-1,-1,-1,-1,-1,-1,-1,-1,-1,-1,-1,-1,-1,-1,-1,-1,-1,-1,-1,-1,-1,-1],"loss_changes":[1.0484469E3,2.1794214E2,1.3292145E2,5.6992126E1,5.337585E1,7.730979E1,1.0837219E1,3.262452E1,1.3070496E1,8.000595E0,3.7893173E1,2.4035978E1,2.1309143E1,1.6282028E1,5.35553E0,1.5036915E1,2.5954674E1,1.9785925E1,5.2071533E0,6.4569855E0,0E0,3.820874E1,2.1136719E1,1.1363663E1,0E0,3.1428272E1,3.3894707E1,1.3899056E1,0E0,1.7314453E0,1.4726606E1,0E0,0E0,0E0,0E0,0E0,0E0,0E0,0E0,0E0,0E0,0E0,0E0,0E0,0E0,0E0,0E0,0E0,0E0,0E0,0E0,0E0,0E0,0E0,0E0,0E0,0E0],"parents":[2147483647,0,0,1,1,2,2,3,3,4,4,5,5,6,6,7,7,8,8,9,9,10,10,11,11,12,12,13,13,14,14,15,15,16,16,17,17,18,18,19,19,21,21,22,22,23,23,25,25,26,26,27,27,29,29,30,30],"right_children":[2,4,6,8,10,12,14,16,18,20,22,24,26,28,30,32,34,36,38,40,-1,42,44,46,-1,48,50,52,-1,54,56,-1,-1,-1,-1,-1,-1,-1,-1,-1,-1,-1,-1,-1,-1,-1,-1,-1,-1,-1,-1,-1,-1,-1,-1,-1,-1],"split_conditions":[3.225637E4,-2.5881904E-1,3.5358562E4,1.2246469E-16,2.332744E4,-8.660254E-1,-8.660254E-1,4.6696E3,6.67838E3,9.749279E-1,4.3388373E-1,6.123234E-17,-8.660254E-1,4.217798E4,1E0,2.166781E4,1.416998E4,8.660254E-1,2.866615E4,-9.659258E-1,-5.5879563E-2,-8.660254E-1,-8.660254E-1,-2.4492937E-16,-6.8531476E-2,4.3388373E-1,-8.660254E-1,4.3388373E-1,-5.9182383E-2,1.279938E4,3.852239E4,3.2042477E-2,-6.842541E-2,3.7038833E-2,5.3059785E-3,3.4621667E-2,-7.7113844E-2,5.679771E-2,4.4513743E-2,-2.0660779E-2,3.92878E-2,1.5135285E-2,-4.369537E-2,4.3732982E-2,-4.9476204E-3,8.309209E-3,4.664592E-2,-7.097497E-2,2.9450435E-2,4.210562E-3,-5.3707916E-2,-5.783555E-2,3.4709026E-3,-6.0029633E-2,-4.496907E-2,3.031095E-3,-5.9164494E-2],"split_indices":[0,4,0,7,0,4,4,1,1,5,5,8,8,0,4,0,1,7,0,3,0,7,8,7,0,5,7,5,0,2,0,0,0,0,0,0,0,0,0,0,0,0,0,0,0,0,0,0,0,0,0,0,0,0,0,0,0],"split_type":[0,0,0,0,0,0,0,0,0,0,0,0,0,0,0,0,0,0,0,0,0,0,0,0,0,0,0,0,0,0,0,0,0,0,0,0,0,0,0,0,0,0,0,0,0,0,0,0,0,0,0,0,0,0,0,0,0],"sum_hessian":[2.1652373E3,1.2819277E3,8.8330963E2,9.244445E2,3.5748322E2,2.6616025E2,6.171494E2,3.7188834E2,5.5255615E2,7.455923E1,2.8292398E2,8.840987E1,1.7775038E2,8.423774E1,5.329116E2,1.6537577E1,3.5535074E2,2.8492496E1,5.2406366E2,7.295279E1,1.6064434E0,1.5754382E2,1.2538016E2,8.299742E1,5.412441E0,3.7307625E1,1.4044275E2,4.266126E1,4.1576485E1,4.9135095E2,4.1560703E1,4.527364E0,1.2010212E1,2.7036035E2,8.49904E1,2.47761E1,3.716397E0,3.7967746E2,1.4438622E2,4.200555E0,6.875223E1,3.4984425E1,1.225594E2,2.7846083E1,9.753407E1,3.1348917E1,5.1648506E1,9.708246E0,2.7599379E1,3.2725483E1,1.0771727E2,1.2212317E1,3.044894E1,4.5513736E2,3.6213573E1,1.4177941E1,2.7382763E1],"tree_param":{"num_deleted":"0","num_feature":"9","num_nodes":"57","size_leaf_vector":"1"}},{"base_weights":[-3.560482E-3,4.603565E-1,-9.9876124E-1,-2.0907038E-1,7.4989444E-1,-4.051419E-1,-1.0910285E0,7.172801E-2,-5.83842E-1,4.3437582E-1,9.5737976E-1,4.4655595E-2,-8.6862653E-1,-7.1564555E-1,-1.1502337E0,-6.8520707E-1,2.0841049E-1,7.662891E-2,-7.310916E-1,7.921525E-1,1.0589189E-1,1.0746343E0,7.010272E-1,-8.4222965E-2,3.4128028E-1,-5.984463E-2,3.8609347E-1,-2.5306407E-1,-5.8534868E-2,-8.5030264E-1,-1.1675615E0,5.9106935E-2,-5.4720145E-2,3.670796E-2,-5.821697E-4,1.3161729E-2,-8.678499E-2,-1.712158E-2,-5.9896756E-2,1.2874323E-2,4.5681447E-2,3.978287E-2,-1.9909702E-2,4.3588873E-2,5.754481E-2,-4.334675E-2,4.1990805E-2,-2.9839624E-2,4.05574E-2,6.070296E-2,-4.914887E-2,-6.024779E-2,4.5306864E-3,-5.782863E-2,1.5448625E-2,-5.9431244E-2,-4.44249E-2],"categories":[],"categories_nodes":[],"categories_segments":[],"categories_sizes":[],"default_left":[0,0,0,0,0,0,0,0,0,0,0,0,0,0,0,0,0,0,0,0,0,0,0,0,0,0,0,0,0,0,0,0,0,0,0,0,0,0,0,0,0,0,0,0,0,0,0,0,0,0,0,0,0,0,0,0,0],"id":23,"left_children":[1,3,5,7,9,11,13,15,17,19,21,23,25,27,29,31,33,35,37,39,41,43,45,-1,47,-1,49,51,-1,53,55,-1,-1,-1,-1,-1,-1,-1,-1,-1,-1,-1,-1,-1,-1,-1,-1,-1,-1,-1,-1,-1,-1,-1,-1,-1,-1],"loss_changes":[9.764667E2,2.7975665E2,3.6388855E1,4.5958664E1,6.552203E1,1.9228737E1,1.20980835E1,2.6041454E1,1.8242474E1,4.709162E1,1.7486328E1,2.5022478E1,1.9154919E1,1.6933422E1,1.6085815E0,3.0728466E1,2.4628513E1,1.2292089E1,2.7351295E1,1.2234016E1,7.348264E1,5.408844E0,4.279724E1,0E0,1.878379E1,0E0,1.2718609E1,1.3805354E1,0E0,1.1370447E1,1.7096558E0,0E0,0E0,0E0,0E0,0E0,0E0,0E0,0E0,0E0,0E0,0E0,0E0,0E0,0E0,0E0,0E0,0E0,0E0,0E0,0E0,0E0,0E0,0E0,0E0,0E0,0E0],"parents":[2147483647,0,0,1,1,2,2,3,3,4,4,5,5,6,6,7,7,8,8,9,9,10,10,11,11,12,12,13,13,14,14,15,15,16,16,17,17,18,18,19,19,20,20,21,21,22,22,24,24,26,26,27,27,29,29,30,30],"right_children":[2,4,6,8,10,12,14,16,18,20,22,24,26,28,30,32,34,36,38,40,42,44,46,-1,48,-1,50,52,-1,54,56,-1,-1,-1,-1,-1,-1,-1,-1,-1,-1,-1,-1,-1,-1,-1,-1,-1,-1,-1,-1,-1,-1,-1,-1,-1,-1],"split_conditions":[3.434369E4,7.06575E3,3.56495E4,3.004997E4,-2.4492937E-16,-2.5881904E-1,-8.660254E-1,-7.818315E-1,-8.660254E-1,-4.3388373E-1,2.866615E4,1.88968E3,1E0,4.217798E4,-8.660254E-1,1.783961E4,-8.660254E-1,9.749279E-1,-5E-1,-7.0710677E-1,-8.660254E-1,-7.0710677E-1,-7.0710677E-1,-8.4222965E-2,1.2246469E-16,-5.984463E-2,-8.660254E-1,2.52512E3,-5.8534868E-2,1E0,1.279938E4,5.9106935E-2,-5.4720145E-2,3.670796E-2,-5.821697E-4,1.3161729E-2,-8.678499E-2,-1.712158E-2,-5.9896756E-2,1.2874323E-2,4.5681447E-2,3.978287E-2,-1.9909702E-2,4.3588873E-2,5.754481E-2,-4.334675E-2,4.1990805E-2,-2.9839624E-2,4.05574E-2,6.070296E-2,-4.914887E-2,-6.024779E-2,4.5306864E-3,-5.782863E-2,1.5448625E-2,-5.9431244E-2,-4.44249E-2],"split_indices":[0,1,0,0,7,4,4,5,8,5,0,2,4,0,8,0,7,5,7,3,7,3,3,0,7,0,7,2,0,4,2,0,0,0,0,0,0,0,0,0,0,0,0,0,0,0,0,0,0,0,0,0,0,0,0,0,0],"split_type":[0,0,0,0,0,0,0,0,0,0,0,0,0,0,0,0,0,0,0,0,0,0,0,0,0,0,0,0,0,0,0,0,0,0,0,0,0,0,0,0,0,0,0,0,0,0,0,0,0,0,0,0,0,0,0,0,0],"sum_hessian":[2.112985E3,1.4415417E3,6.714433E2,4.353251E2,1.0062167E3,9.10495E1,5.803938E2,2.4932582E2,1.8599928E2,4.00412E2,6.058047E2,4.6665615E1,4.4383884E1,8.08518E1,4.99542E2,3.7521584E1,2.1180423E2,3.399561E1,1.5200368E2,1.9098465E2,2.0942735E2,4.1348593E2,1.9231871E2,6.148045E0,4.051757E1,3.5216465E1,9.16742E0,4.086586E1,3.998594E1,3.0018343E1,4.6952365E2,6.4047728E0,3.1116812E1,6.1804882E1,1.4999934E2,3.159699E1,2.3986177E0,8.389352E1,6.811016E1,3.5935932E1,1.5504872E2,8.818334E1,1.21244E2,1.16370804E2,2.9711514E2,1.5212261E1,1.7710646E2,1.3431657E1,2.7085913E1,5.78318E0,3.38424E0,1.0175764E1,3.0690094E1,2.3746948E1,6.271395E0,4.3354132E2,3.5982327E1],"tree_param":{"num_deleted":"0","num_feature":"9","num_nodes":"57","size_leaf_vector":"1"}},{"base_weights":[-3.677842E-3,4.4583052E-1,-9.837261E-1,7.3128235E-1,-1.9794632E-1,-3.941002E-1,-1.0769979E0,8.11473E-1,-2.6430213E-1,2.3950538E-1,-5.518746E-1,4.1127674E-2,-8.5483974E-1,-6.9752777E-1,-1.1378495E0,5.447868E-1,9.8668253E-1,2.7020666E-1,-9.5544165E-1,8.3471125E-1,8.522411E-2,-9.332849E-1,-2.1845387E-1,-1.0756644E0,4.7072414E-1,-5.9147324E-2,3.7331358E-1,-2.4360248E-1,-5.7925384E-2,-8.329885E-1,-1.1556697E0,3.521614E-2,-1.3704847E-3,-1.8752791E-2,5.0157767E-2,-6.944194E-2,2.812374E-2,-9.71224E-2,-1.262392E-2,5.7346225E-2,3.0076224E-2,1.211658E-2,-4.5242466E-2,-5.34196E-2,2.49415E-2,-5.9691887E-2,8.228898E-4,-8.187083E-2,-1.1549029E-2,3.3793557E-2,-5.17191E-2,5.85819E-2,-4.8339948E-2,-5.9232336E-2,4.3060514E-3,-5.7186067E-2,1.4691195E-2,-5.8875706E-2,-4.3503005E-2],"categories":[],"categories_nodes":[],"categories_segments":[],"categories_sizes":[],"default_left":[0,0,0,0,0,0,0,0,0,0,0,0,0,0,0,0,0,0,0,0,0,0,0,0,0,0,0,0,0,0,0,0,0,0,0,0,0,0,0,0,0,0,0,0,0,0,0,0,0,0,0,0,0,0,0,0,0,0,0],"id":24,"left_children":[1,3,5,7,9,11,13,15,17,19,21,23,25,27,29,31,33,35,37,39,41,43,45,47,49,-1,51,53,-1,55,57,-1,-1,-1,-1,-1,-1,-1,-1,-1,-1,-1,-1,-1,-1,-1,-1,-1,-1,-1,-1,-1,-1,-1,-1,-1,-1,-1,-1],"loss_changes":[9.1017737E2,2.6043436E2,3.530304E1,7.857507E1,6.762056E1,1.8144169E1,1.2145325E1,4.1917297E1,2.7565104E1,1.7894604E1,3.047638E1,2.3244274E1,1.8137356E1,1.6462372E1,1.6521606E0,3.310916E1,1.2648865E1,2.1370369E1,2.2028828E1,2.2338524E0,2.4560024E1,2.2246864E1,2.9813437E1,6.013624E0,1.1482157E1,0E0,1.1850958E1,1.3005406E1,0E0,1.0897083E1,1.7964478E0,0E0,0E0,0E0,0E0,0E0,0E0,0E0,0E0,0E0,0E0,0E0,0E0,0E0,0E0,0E0,0E0,0E0,0E0,0E0,0E0,0E0,0E0,0E0,0E0,0E0,0E0,0E0,0E0],"parents":[2147483647,0,0,1,1,2,2,3,3,4,4,5,5,6,6,7,7,8,8,9,9,10,10,11,11,12,12,13,13,14,14,15,15,16,16,17,17,18,18,19,19,20,20,21,21,22,22,23,23,24,24,26,26,27,27,29,29,30,30],"right_children":[2,4,6,8,10,12,14,16,18,20,22,24,26,28,30,32,34,36,38,40,42,44,46,48,50,-1,52,54,-1,56,58,-1,-1,-1,-1,-1,-1,-1,-1,-1,-1,-1,-1,-1,-1,-1,-1,-1,-1,-1,-1,-1,-1,-1,-1,-1,-1,-1,-1],"split_conditions":[3.434369E4,-2.5881904E-1,3.56495E4,6.123234E-17,2.805248E4,-2.5881904E-1,-8.660254E-1,-2.4492937E-16,2.959779E4,2.076166E4,4.3388373E-1,2.74341E3,1E0,4.217798E4,-8.660254E-1,-5E-1,3.4772E3,6.21354E3,6.234898E-1,1.783961E4,1.1668728E4,1E0,1.2246469E-16,5E-1,7.925E3,-5.9147324E-2,-8.660254E-1,2.52512E3,-5.7925384E-2,1E0,1.279938E4,3.521614E-2,-1.3704847E-3,-1.8752791E-2,5.0157767E-2,-6.944194E-2,2.812374E-2,-9.71224E-2,-1.262392E-2,5.7346225E-2,3.0076224E-2,1.211658E-2,-4.5242466E-2,-5.34196E-2,2.49415E-2,-5.9691887E-2,8.228898E-4,-8.187083E-2,-1.1549029E-2,3.3793557E-2,-5.17191E-2,5.85819E-2,-4.8339948E-2,-5.9232336E-2,4.3060514E-3,-5.7186067E-2,1.4691195E-2,-5.8875706E-2,-4.3503005E-2],"split_indices":[0,4,0,8,0,4,4,7,0,0,5,2,4,0,8,7,1,1,6,0,2,4,3,3,2,0,7,2,0,4,2,0,0,0,0,0,0,0,0,0,0,0,0,0,0,0,0,0,0,0,0,0,0,0,0,0,0,0,0],"split_type":[0,0,0,0,0,0,0,0,0,0,0,0,0,0,0,0,0,0,0,0,0,0,0,0,0,0,0,0,0,0,0,0,0,0,0,0,0,0,0,0,0,0,0,0,0,0,0,0,0,0,0,0,0,0,0,0,0,0,0],"sum_hessian":[2.0640544E3,1.4154088E3,6.486455E2,9.80512E2,4.3489682E2,8.930723E1,5.593383E2,9.075937E2,7.291838E1,1.9464317E2,2.4025365E2,4.639341E1,4.2913815E1,7.9021774E1,4.8031653E2,3.614858E2,5.4610785E2,4.14619E1,3.145648E1,3.9159267E1,1.554839E2,1.1122305E2,1.290306E2,1.247059E1,3.392282E1,3.3895332E1,9.018482E0,4.0585663E1,3.8436115E1,2.916252E1,4.51154E2,2.824923E2,7.8993515E1,6.267099E0,5.3984076E2,5.6482053E0,3.5813694E1,1.2351267E1,1.9105213E1,1.5067263E1,2.4092005E1,1.3484204E2,2.064186E1,1.0186681E2,9.356239E0,2.4251816E1,1.04778786E2,6.9259977E0,5.5445914E0,3.0338598E1,3.5842235E0,5.730473E0,3.288009E0,9.857918E0,3.0727743E1,2.2847128E1,6.3153906E0,4.1619894E2,3.4955067E1],"tree_param":{"num_deleted":"0","num_feature":"9","num_nodes":"59","size_leaf_vector":"1"}},{"base_weights":[-3.9487667E-3,5.2603626E-1,-7.9808795E-1,8.435888E-1,5.0929584E-2,-2.3925106E-1,-1.0533395E0,9.0873843E-1,-1.394313E-1,6.1356914E-1,-2.9826432E-1,4.6115237E-1,-5.8882135E-1,-6.91646E-1,-1.1116879E0,6.838061E-1,1.0540738E0,1.9673301E-1,-1.2636167E0,-9.2498904E-1,6.82777E-1,-6.728134E-1,1.1541029E-1,5.9157884E-1,-6.53282E-2,4.7227852E-2,-7.6116246E-1,-2.7059305E-1,-5.7350535E-2,-1.1447207E0,-7.1562696E-1,4.1694995E-2,8.339229E-3,5.503834E-2,3.7364636E-2,-9.072306E-2,2.5309538E-2,1.4725402E-2,-8.988591E-2,3.0523917E-2,-7.852461E-2,1.4872809E-2,4.3210205E-2,-5.0512005E-2,-1.4323427E-2,1.4066919E-2,-8.2307E-2,7.3502087E-3,4.341831E-2,-6.965747E-2,2.825039E-2,3.787534E-3,-5.1294446E-2,-5.6613274E-2,4.2620106E-3,-5.8369435E-2,-4.2177737E-2,4.453215E-3,-5.7457116E-2],"categories":[],"categories_nodes":[],"categories_segments":[],"categories_sizes":[],"default_left":[0,0,0,0,0,0,0,0,0,0,0,0,0,0,0,0,0,0,0,0,0,0,0,0,0,0,0,0,0,0,0,0,0,0,0,0,0,0,0,0,0,0,0,0,0,0,0,0,0,0,0,0,0,0,0,0,0,0,0],"id":25,"left_children":[1,3,5,7,9,11,13,15,17,19,21,23,25,27,29,31,33,35,37,39,41,43,45,47,-1,49,51,53,-1,55,57,-1,-1,-1,-1,-1,-1,-1,-1,-1,-1,-1,-1,-1,-1,-1,-1,-1,-1,-1,-1,-1,-1,-1,-1,-1,-1,-1,-1],"loss_changes":[8.4894696E2,1.8247119E2,1.14909546E2,4.656006E1,9.56094E1,6.2565765E1,1.0920898E1,2.1512085E1,1.7606668E1,2.0472176E1,4.661783E1,2.043211E1,1.8688461E1,1.4949722E1,5.399414E0,2.0797493E1,5.069092E0,2.346337E1,9.440544E0,9.329483E0,1.2248413E1,2.0280266E1,4.2431675E1,9.728552E0,0E0,2.8544317E1,2.9752922E1,1.3177179E1,0E0,1.9989014E0,1.3797647E1,0E0,0E0,0E0,0E0,0E0,0E0,0E0,0E0,0E0,0E0,0E0,0E0,0E0,0E0,0E0,0E0,0E0,0E0,0E0,0E0,0E0,0E0,0E0,0E0,0E0,0E0,0E0,0E0],"parents":[2147483647,0,0,1,1,2,2,3,3,4,4,5,5,6,6,7,7,8,8,9,9,10,10,11,11,12,12,13,13,14,14,15,15,16,16,17,17,18,18,19,19,20,20,21,21,22,22,23,23,25,25,26,26,27,27,29,29,30,30],"right_children":[2,4,6,8,10,12,14,16,18,20,22,24,26,28,30,32,34,36,38,40,42,44,46,48,-1,50,52,54,-1,56,58,-1,-1,-1,-1,-1,-1,-1,-1,-1,-1,-1,-1,-1,-1,-1,-1,-1,-1,-1,-1,-1,-1,-1,-1,-1,-1,-1,-1],"split_conditions":[3.225637E4,-5E-1,3.5358562E4,6.123234E-17,2.520699E4,-8.660254E-1,-8.660254E-1,-2.4492937E-16,1.0492489E4,-9.659258E-1,4.3388373E-1,6.123234E-17,-8.660254E-1,4.217798E4,1E0,-5E-1,5E-1,3.49318E3,-9.659258E-1,2.000526E4,2.416835E3,6.06468E3,1.187041E4,-2.4492937E-16,-6.53282E-2,4.3388373E-1,-8.660254E-1,4.3388373E-1,-5.7350535E-2,1.279938E4,3.852239E4,4.1694995E-2,8.339229E-3,5.503834E-2,3.7364636E-2,-9.072306E-2,2.5309538E-2,1.4725402E-2,-8.988591E-2,3.0523917E-2,-7.852461E-2,1.4872809E-2,4.3210205E-2,-5.0512005E-2,-1.4323427E-2,1.4066919E-2,-8.2307E-2,7.3502087E-3,4.341831E-2,-6.965747E-2,2.825039E-2,3.787534E-3,-5.1294446E-2,-5.6613274E-2,4.2620106E-3,-5.8369435E-2,-4.2177737E-2,4.453215E-3,-5.7457116E-2],"split_indices":[0,4,0,8,0,4,4,7,2,3,5,8,8,0,4,7,3,2,4,0,1,2,1,7,0,5,7,5,0,2,0,0,0,0,0,0,0,0,0,0,0,0,0,0,0,0,0,0,0,0,0,0,0,0,0,0,0,0,0],"split_type":[0,0,0,0,0,0,0,0,0,0,0,0,0,0,0,0,0,0,0,0,0,0,0,0,0,0,0,0,0,0,0,0,0,0,0,0,0,0,0,0,0,0,0,0,0,0,0,0,0,0,0,0,0,0,0,0,0,0,0],"sum_hessian":[2.0150696E3,1.2087339E3,8.0633563E2,7.2402997E2,4.847039E2,2.5342812E2,5.5290753E2,6.790983E2,4.4931644E1,1.8533128E2,2.9937262E2,8.426816E1,1.6915996E2,7.85905E1,4.7431705E2,2.6879507E2,4.1030325E2,3.522372E1,9.707924E0,7.4454827E0,1.778858E2,1.567876E2,1.42585E2,7.9097496E1,5.1706657E0,3.6218067E1,1.3294188E2,4.1661983E1,3.6928516E1,4.3605817E2,3.825886E1,2.0784406E2,6.0951023E1,3.5385703E2,5.6446224E1,4.048539E0,3.1175182E1,2.5927458E0,7.115178E0,2.2197032E0,5.2257795E0,5.7789677E1,1.2009612E2,8.283028E1,7.395733E1,1.3107845E2,1.1506558E1,3.0937277E1,4.8160217E1,9.129819E0,2.708825E1,3.2117767E1,1.0082412E2,1.153858E1,3.0123402E1,4.028597E2,3.3198467E1,1.3673207E1,2.4585655E1],"tree_param":{"num_deleted":"0","num_feature":"9","num_nodes":"59","size_leaf_vector":"1"}},{"base_weights":[-4.147156E-3,4.1845128E-1,-9.554714E-1,-2.0879397E-1,6.8682677E-1,-3.7388653E-1,-1.0506649E0,1.24688804E-1,-5.2203304E-1,3.7750784E-1,